<?xml version="1.0"?>
<opencv_storage>
<opencv_ml_svm>
  <format>3</format>
  <svmType>C_SVC</svmType>
  <kernel>
    <type>RBF</type>
    <gamma>8.0000000000000004e-001</gamma></kernel>
  <C>20.</C>
  <term_criteria><epsilon>9.9999999747524271e-007</epsilon></term_criteria>
  <var_count>11</var_count>
  <class_count>2</class_count>
  <class_labels type_id="opencv-matrix">
    <rows>2</rows>
    <cols>1</cols>
    <dt>i</dt>
    <data>
      0 1</data></class_labels>
  <sv_total>3545</sv_total>
  <support_vectors>
    <_>
      1.54261363e+000 7.89420068e-001 1.07575762e+000 2. 0.
      1.71428573e+000 4.56470579e-001 5.22993147e-001 3.93388897e-001
      5.22783399e-001 5.81123173e-001</_>
    <_>
      1.97826087e+000 1.26693225e+000 1.50000000e+000 2. 1.
      2.40000010e+000 4.25411761e-001 5.71382821e-001 2.90943682e-001
      4.67368007e-001 5.73441803e-001</_>
    <_>
      2.09397602e+000 1.29813111e+000 1.82307696e+000 4. 0.
      1.60000002e+000 7.66431332e-001 9.33504283e-001 6.45845234e-001
      8.42904687e-001 9.89848912e-001</_>
    <_>
      2.54945064e+000 1.75075328e+000 1.37121212e+000 4. 2.
      1.84615386e+000 6.26823545e-001 6.96042299e-001 5.39171100e-001
      7.09612489e-001 7.38742590e-001</_>
    <_>
      2.11590290e+000 1.33581817e+000 1.81521738e+000 2. 0.
      1.84615386e+000 4.35137272e-001 4.59862173e-001 3.02757561e-001
      3.15076232e-001 4.23362672e-001</_>
    <_>
      1.86206901e+000 1.10169578e+000 1.56818187e+000 4. 0.
      2.66666675e+000 4.63058859e-001 4.74603415e-001 3.77035677e-001
      4.65838373e-001 4.62354213e-001</_>
    <_>
      2.20967746e+000 1.21617305e+000 1.91216218e+000 2. 2.
      1.50000000e+000 9.97019649e-001 1.01778567e+000 8.77797067e-001
      1.00834584e+000 1.05386031e+000</_>
    <_>
      1.52380955e+000 8.51835430e-001 1.38888884e+000 2. 0.
      2.40000010e+000 3.37882370e-001 2.38423333e-001 2.93135732e-001
      2.52871394e-001 2.48102337e-001</_>
    <_>
      2.46823525e+000 1.55360770e+000 2.43518519e+000 2. 1.
      1.60000002e+000 1.00141180e+000 8.89601052e-001 8.93704116e-001
      9.99087572e-001 8.36201251e-001</_>
    <_>
      1.37142861e+000 5.52175641e-001 8.82352948e-001 2. 2.
      3.28571439e+000 2.84549028e-001 2.87133455e-001 2.37461090e-001
      2.87086725e-001 2.95521230e-001</_>
    <_>
      1.57454550e+000 8.51142168e-001 9.49275374e-001 2. 0.
      2.66666675e+000 4.09411788e-001 4.75244343e-001 3.20643276e-001
      4.39485848e-001 5.11385977e-001</_>
    <_>
      2.30718946e+000 1.42012167e+000 1.76851857e+000 4. 1.
      2.40000010e+000 5.84784269e-001 7.38343239e-001 4.35115784e-001
      6.50171757e-001 8.07048321e-001</_>
    <_>
      1.36760128e+000 6.23084128e-001 9.74358976e-001 2. 0.
      2.55555558e+000 2.38117665e-001 2.67585337e-001 2.10535511e-001
      2.86952555e-001 3.01267117e-001</_>
    <_>
      1.98104262e+000 1.10132229e+000 1.25757575e+000 2. 0. 3.
      2.97725499e-001 2.44512096e-001 2.78509021e-001 2.92024493e-001
      2.70017445e-001</_>
    <_>
      1.69075143e+000 9.49460447e-001 1.39189184e+000 2. 0.
      1.84615386e+000 2.38431364e-001 4.23009157e-001 1.65588424e-001
      3.49962413e-001 5.08623898e-001</_>
    <_>
      1.36551726e+000 5.90894043e-001 8.98148119e-001 2. 0.
      2.40000010e+000 3.03058833e-001 3.46418858e-001 2.56413758e-001
      3.51089537e-001 3.95661324e-001</_>
    <_>
      1.85447764e+000 1.08470476e+000 1.78571427e+000 2. 0.
      2.40000010e+000 4.38901961e-001 4.34225261e-001 3.24290246e-001
      3.57717931e-001 4.04854804e-001</_>
    <_>
      2.60439563e+000 1.72301245e+000 1.70634925e+000 4. 0.
      1.50000000e+000 7.67372608e-001 7.91860282e-001 6.76049232e-001
      7.77774811e-001 8.86301577e-001</_>
    <_>
      1.48163271e+000 6.97421908e-001 8.93617034e-001 2. 0. 2.
      2.73254901e-001 2.47396246e-001 2.44405866e-001 2.55635500e-001
      2.57416755e-001</_>
    <_>
      1.59677422e+000 6.71053052e-001 1.53703701e+000 2. 0.
      5.75000000e+000 2.47843146e-001 2.78481007e-001 2.00389922e-001
      2.70314515e-001 2.96872020e-001</_>
    <_>
      1.81034482e+000 9.23684716e-001 1.72297299e+000 4. 0.
      1.14285719e+000 7.71137238e-001 8.91523778e-001 7.46932566e-001
      7.59097278e-001 8.72410595e-001</_>
    <_>
      1.65359473e+000 8.98948252e-001 1.33593750e+000 4. 0. 2.
      5.64392209e-001 6.50216341e-001 4.74514812e-001 6.42147899e-001
      6.70698881e-001</_>
    <_>
      1.93560600e+000 1.19326603e+000 1.19047618e+000 4. 1.
      2.40000010e+000 4.84705895e-001 5.80035269e-001 3.93311292e-001
      5.60245812e-001 6.52049899e-001</_>
    <_>
      2.08951402e+000 1.31085086e+000 1.12280703e+000 4. 0.
      2.40000010e+000 3.93725485e-001 4.39032197e-001 3.16569537e-001
      4.10127759e-001 4.41729426e-001</_>
    <_>
      1.79651165e+000 8.41779351e-001 1.10714281e+000 4. 1. 3.
      4.10980403e-001 4.33263898e-001 3.38509589e-001 4.24779952e-001
      4.58221197e-001</_>
    <_>
      1.17578125e+000 3.90761703e-001 1.04385960e+000 4. 0.
      1.91666663e+000 3.80549014e-001 3.68851125e-001 3.42408776e-001
      3.62736166e-001 3.42476398e-001</_>
    <_>
      1.29629624e+000 6.20598912e-001 1.13541663e+000 2. 0. 2.
      3.48862767e-001 2.82006085e-001 2.95599401e-001 2.77667463e-001
      2.76650429e-001</_>
    <_>
      2.82857132e+000 1.90120184e+000 2.66666675e+000 2. 0.
      1.60000002e+000 7.54823565e-001 8.89601052e-001 6.05088294e-001
      8.64775658e-001 9.25635815e-001</_>
    <_>
      2.38106799e+000 1.71739554e+000 1.72826087e+000 4. 0.
      1.90909088e+000 5.09176493e-001 5.47989130e-001 4.01575208e-001
      5.21146417e-001 5.04954576e-001</_>
    <_>
      2.39847708e+000 1.54988050e+000 1.72307694e+000 2. 0.
      1.26315784e+000 6.04235291e-001 7.28408933e-001 4.42176938e-001
      5.66498518e-001 7.72794664e-001</_>
    <_>
      1.43089426e+000 6.12621963e-001 1.32142854e+000 2. 0. 6.
      2.09882349e-001 2.18554720e-001 1.69099614e-001 2.02581584e-001
      2.36328259e-001</_>
    <_>
      2.21921182e+000 1.33306766e+000 1.91111112e+000 4. 1.
      2.18181825e+000 5.43686271e-001 6.51818633e-001 4.20469671e-001
      6.07878923e-001 6.54348254e-001</_>
    <_>
      2.26398206e+000 1.51712823e+000 1.55319154e+000 2. 1.
      1.72727275e+000 5.36470652e-001 4.13715720e-001 4.72167552e-001
      4.49280798e-001 3.45379591e-001</_>
    <_>
      1.34285712e+000 6.49018109e-001 9.52380955e-001 2. 0.
      2.40000010e+000 2.80470580e-001 2.10222721e-001 2.64406055e-001
      2.46028349e-001 2.06086636e-001</_>
    <_>
      1.35686278e+000 5.82508087e-001 1.02173913e+000 2. 2.
      2.66666675e+000 3.19372565e-001 2.94183612e-001 2.82679766e-001
      3.06542516e-001 2.83585846e-001</_>
    <_>
      1.45848370e+000 7.75929749e-001 1.15909088e+000 2. 0. 2.
      3.33176464e-001 2.64060259e-001 2.89973736e-001 2.57889688e-001
      2.56932884e-001</_>
    <_>
      1.47337282e+000 7.09738612e-001 1.15873015e+000 4. 0.
      1.71428573e+000 5.02274513e-001 4.31982040e-001 4.47511643e-001
      4.41847384e-001 4.12455529e-001</_>
    <_>
      1.62538695e+000 9.10332561e-001 1.56521738e+000 2. 1.
      1.83333337e+000 4.28549021e-001 5.92212796e-001 3.26753914e-001
      5.51041245e-001 6.31687164e-001</_>
    <_>
      1.73053896e+000 8.22127581e-001 1.04385960e+000 2. 2. 3.
      3.82745117e-001 3.93526673e-001 3.11584026e-001 3.82567644e-001
      4.10197496e-001</_>
    <_>
      2.25000000e+000 1.33697414e+000 1.95000005e+000 2. 0.
      1.60000002e+000 3.51999998e-001 6.84505701e-001 2.34066293e-001
      5.13900816e-001 7.98701644e-001</_>
    <_>
      1.86104214e+000 1.08476746e+000 1.52272725e+000 4. 1.
      1.60000002e+000 6.48156881e-001 7.60455072e-001 5.40102243e-001
      7.06016541e-001 8.04770112e-001</_>
    <_>
      2.34999990e+000 1.55345237e+000 1.46969700e+000 2. 0.
      3.42857146e+000 5.96705914e-001 2.44512096e-001 8.38999391e-001
      4.74640429e-001 2.28001729e-001</_>
    <_>
      1.67750001e+000 9.26549375e-001 1.44354844e+000 4. 0.
      1.71428573e+000 5.27058840e-001 6.33231878e-001 4.10362870e-001
      5.58716178e-001 6.35195196e-001</_>
    <_>
      2.21957040e+000 1.24532497e+000 1.99253726e+000 4. 0.
      1.41176474e+000 8.89725566e-001 8.92805636e-001 7.98999012e-001
      8.82460296e-001 8.42531860e-001</_>
    <_>
      2.66825771e+000 1.77283120e+000 1.91509438e+000 2. 1.
      1.91666663e+000 6.77647114e-001 7.39304602e-001 5.40916979e-001
      6.94369912e-001 7.26988673e-001</_>
    <_>
      2.38805962e+000 1.37861609e+000 2.28947377e+000 2. 1.
      1.26315784e+000 9.71294165e-001 7.49559402e-001 8.79814565e-001
      7.94922709e-001 6.50860369e-001</_>
    <_>
      2.29032254e+000 1.07843614e+000 1.84090912e+000 2. 0.
      1.50000000e+000 2.45019615e-001 4.37109411e-001 2.07160115e-001
      4.26551104e-001 5.49026728e-001</_>
    <_>
      1.90306127e+000 1.04773366e+000 1.77083337e+000 4. 0.
      1.33333337e+000 8.59607816e-001 9.12994742e-001 7.93877721e-001
      9.02130783e-001 9.04123962e-001</_>
    <_>
      1.41875005e+000 8.25165689e-001 1.05714285e+000 2. 0.
      2.40000010e+000 1.66588232e-001 3.20141017e-001 1.23512357e-001
      2.66020834e-001 4.07838643e-001</_>
    <_>
      1.65873015e+000 9.85310376e-001 1.28723407e+000 2. 0.
      1.71428573e+000 3.80549014e-001 3.10206711e-001 3.17112684e-001
      2.57272422e-001 3.26045096e-001</_>
    <_>
      1.64814818e+000 7.57450402e-001 8.78048778e-001 4. 2. 3.
      2.12705880e-001 2.03172565e-001 1.81728244e-001 2.00220063e-001
      1.89554542e-001</_>
    <_>
      2.09799004e+000 1.18106759e+000 1.51851857e+000 4. 0.
      1.60000002e+000 4.33254898e-001 4.39993560e-001 3.17190289e-001
      3.00772846e-001 4.11870867e-001</_>
    <_>
      1.78305089e+000 1.07689965e+000 1.38000000e+000 2. 0. 2.
      3.98117661e-001 3.53148520e-001 2.96588719e-001 2.81129241e-001
      3.11650097e-001</_>
    <_>
      1.76859510e+000 8.50477099e-001 1.09375000e+000 2. 0. 3.
      2.07058817e-001 1.52219191e-001 1.76994935e-001 1.50654793e-001
      1.70623288e-001</_>
    <_>
      2.94259810e+000 2.02843046e+000 1.63953483e+000 2. 0.
      1.60000002e+000 5.10745168e-001 3.76542211e-001 4.51953977e-001
      3.97273540e-001 3.64048749e-001</_>
    <_>
      1.82487309e+000 1.06503761e+000 1.43939400e+000 2. 0.
      2.20000005e+000 3.52941185e-001 1.93558723e-001 3.33601683e-001
      2.49838993e-001 1.66248322e-001</_>
    <_>
      1.73841059e+000 9.90575492e-001 1.65116274e+000 2. 0.
      2.18181825e+000 4.04078454e-001 4.13074851e-001 2.95211405e-001
      3.24522316e-001 4.07112837e-001</_>
    <_>
      1.67910445e+000 9.66612399e-001 1.41666663e+000 2. 0.
      2.55555558e+000 2.88313746e-001 2.79442370e-001 2.16432765e-001
      2.51153946e-001 2.66086042e-001</_>
    <_>
      1.38000000e+000 5.61782897e-001 6.89655185e-001 4. 1.
      3.28571439e+000 2.27137268e-001 2.71430850e-001 1.83202565e-001
      2.46162519e-001 2.80541539e-001</_>
    <_>
      1.57861638e+000 7.72023797e-001 1.02272725e+000 2. 0. 3.
      2.71686286e-001 3.40330064e-001 2.25957587e-001 3.36437345e-001
      3.84028405e-001</_>
    <_>
      1.57317078e+000 7.07632422e-001 8.72093022e-001 2. 1.
      2.57142854e+000 2.27764726e-001 2.18554720e-001 1.95074648e-001
      2.19756335e-001 1.94957718e-001</_>
    <_>
      1.53513515e+000 8.60614538e-001 1.16379309e+000 4. 0.
      2.18181825e+000 4.09725487e-001 4.23650026e-001 3.15153420e-001
      3.89947414e-001 4.19390947e-001</_>
    <_>
      1.35802472e+000 6.34572685e-001 9.80769217e-001 2. 1.
      2.29999995e+000 3.20941180e-001 3.99615467e-001 2.69158781e-001
      3.78730178e-001 4.32354510e-001</_>
    <_>
      2.48054910e+000 1.45652843e+000 1.83333337e+000 4. 0.
      1.60000002e+000 8.15058827e-001 8.86716902e-001 6.98125124e-001
      8.63299727e-001 8.84769320e-001</_>
    <_>
      2.01711488e+000 1.17521286e+000 1.01754391e+000 2. 1. 2.
      3.77098054e-001 3.09245288e-001 3.22020590e-001 3.06488872e-001
      2.92073667e-001</_>
    <_>
      1.63333333e+000 9.60797250e-001 1.18032789e+000 2. 0. 2.
      3.77411783e-001 4.79730844e-001 2.56627142e-001 3.63702238e-001
      4.63402599e-001</_>
    <_>
      2.48988771e+000 1.47427714e+000 2.08035707e+000 2. 2.
      1.84615386e+000 7.50745058e-001 8.04358304e-001 5.87571144e-001
      7.40822256e-001 7.91121066e-001</_>
    <_>
      1.99184787e+000 1.10701263e+000 1.99056602e+000 2. 1.
      1.60000002e+000 5.61568618e-001 8.73898447e-001 3.98917556e-001
      7.22869277e-001 9.45050955e-001</_>
    <_>
      1.91489363e+000 1.08431339e+000 1.51063836e+000 4. 1.
      2.66666675e+000 4.40784335e-001 4.60182667e-001 3.37132275e-001
      4.23974872e-001 4.37979460e-001</_>
    <_>
      1.75151515e+000 7.73861289e-001 1.31081080e+000 2. 1.
      2.85714293e+000 2.66980410e-001 2.07018107e-001 1.99129000e-001
      1.69895887e-001 1.65966064e-001</_>
    <_>
      2.39150953e+000 1.66612291e+000 1.48360658e+000 2. 0.
      1.71428573e+000 6.15215659e-001 7.05656171e-001 5.10325015e-001
      6.72096372e-001 7.78661489e-001</_>
    <_>
      1.95335281e+000 1.25153387e+000 1.33846152e+000 4. 0.
      1.60000002e+000 5.85098028e-001 6.24579430e-001 4.99772102e-001
      5.81445873e-001 7.04246938e-001</_>
    <_>
      1.70780861e+000 9.47096586e-001 1.48437500e+000 4. 0.
      1.60000002e+000 5.46509862e-001 6.68482602e-001 4.21536595e-001
      5.82250953e-001 6.68622315e-001</_>
    <_>
      1.90883982e+000 1.27664065e+000 1.50909090e+000 2. 0. 2.
      5.65019608e-001 4.77487624e-001 4.72070545e-001 4.27812397e-001
      4.62979198e-001</_>
    <_>
      1.83213425e+000 1.04600346e+000 1.33606553e+000 2. 2.
      2.18181825e+000 5.75686336e-001 5.66896319e-001 4.91197795e-001
      5.84585667e-001 5.73764384e-001</_>
    <_>
      2.85146451e+000 1.86043024e+000 2.09649134e+000 2. 0.
      1.60000002e+000 8.41098070e-001 8.39929521e-001 7.13198006e-001
      8.74651134e-001 8.67269516e-001</_>
    <_>
      2.44396544e+000 1.48740625e+000 1.78906250e+000 2. 1.
      1.33333337e+000 7.21882343e-001 9.50809181e-001 5.93002856e-001
      8.46554339e-001 1.01791310e+000</_>
    <_>
      1.65625000e+000 7.66867638e-001 1.23255813e+000 2. 0. 3.
      3.18431377e-001 3.68851125e-001 2.50147939e-001 3.37108195e-001
      4.14895028e-001</_>
    <_>
      1.27692306e+000 5.19102573e-001 1.14999998e+000 2. 0.
      1.71428573e+000 2.54431367e-001 3.75901282e-001 1.76354781e-001
      2.38272861e-001 3.84693712e-001</_>
    <_>
      1.66216218e+000 7.40288973e-001 1.20270276e+000 2. 0. 3.
      2.71686286e-001 3.07002068e-001 2.22620979e-001 3.07454944e-001
      3.31488609e-001</_>
    <_>
      2.45542169e+000 1.41329765e+000 2.21014500e+000 4. 1.
      1.09090912e+000 9.02274489e-001 1.10431027e+000 7.99619794e-001
      1.04092419e+000 1.10873878e+000</_>
    <_>
      1.91304350e+000 1.05965722e+000 1.71311474e+000 4. 0.
      1.60000002e+000 6.78274512e-001 6.07915401e-001 5.99579036e-001
      5.63063562e-001 5.63603222e-001</_>
    <_>
      1.94485295e+000 1.16026866e+000 1.36666667e+000 2. 0.
      2.42857146e+000 2.84549028e-001 1.74331039e-001 2.60390520e-001
      1.95443332e-001 1.38305053e-001</_>
    <_>
      2.40106940e+000 1.51978004e+000 2.01960778e+000 2. 1.
      1.84615386e+000 6.66980386e-001 7.98910439e-001 5.23302853e-001
      7.43049622e-001 8.29124689e-001</_>
    <_>
      1.36280489e+000 6.19367838e-001 1.00833333e+000 2. 0. 2.
      3.73960793e-001 4.36468542e-001 3.13795477e-001 4.27651346e-001
      4.72253323e-001</_>
    <_>
      1.92405069e+000 1.04666018e+000 1.19512200e+000 2. 1.
      3.28571439e+000 3.39764714e-001 4.21727300e-001 2.99808919e-001
      4.44369912e-001 4.75761324e-001</_>
    <_>
      1.81538463e+000 1.07977641e+000 1.55737710e+000 2. 0. 2.
      6.75137281e-001 6.72648609e-001 5.68424523e-001 6.67641699e-001
      7.14851677e-001</_>
    <_>
      2.71369290e+000 1.73114598e+000 1.50943398e+000 4. 0.
      2.18181825e+000 4.03450996e-001 5.21070361e-001 2.63474911e-001
      3.73282552e-001 4.87091869e-001</_>
    <_>
      1.51641786e+000 8.17092955e-001 1.10000002e+000 2. 1.
      2.18181825e+000 3.64549041e-001 3.55391741e-001 2.90827274e-001
      3.13922286e-001 3.39008689e-001</_>
    <_>
      1.98511171e+000 1.21601260e+000 1.87719297e+000 4. 0.
      1.33333337e+000 7.40705848e-001 7.37381816e-001 6.60588384e-001
      7.37199426e-001 7.13077486e-001</_>
    <_>
      1.42187500e+000 6.68596625e-001 8.24074090e-001 4. 1.
      3.42857146e+000 2.51607835e-001 2.95785904e-001 1.99342385e-001
      2.66450226e-001 3.42032850e-001</_>
    <_>
      1.84899330e+000 1.08095884e+000 1.69444442e+000 2. 0. 2.
      3.02117646e-001 5.17865717e-001 2.10419118e-001 4.30281222e-001
      6.11566424e-001</_>
    <_>
      3.24734044e+000 2.04210806e+000 2.91489363e+000 2. 1.
      1.50000000e+000 7.63921618e-001 1.01297867e+000 5.36164284e-001
      8.26481342e-001 1.08242857e+000</_>
    <_>
      2.40972233e+000 1.47861230e+000 1.38586962e+000 2. 0.
      1.41176474e+000 8.38901997e-001 8.47941041e-001 7.07048535e-001
      7.98035622e-001 8.39144766e-001</_>
    <_>
      2.57082462e+000 1.55238163e+000 1.63636363e+000 4. 2.
      1.04347825e+000 1.05631375e+000 1.15237939e+000 1.07580101e+000
      1.05603266e+000 1.17547202e+000</_>
    <_>
      1.58415842e+000 9.09437060e-001 1.22058821e+000 2. 0.
      2.66666675e+000 1.85725495e-001 3.73017132e-001 1.27372727e-001
      2.93634593e-001 4.66124326e-001</_>
    <_>
      2.43908048e+000 1.53812516e+000 1.29861116e+000 4. 0.
      1.71428573e+000 6.17725492e-001 6.63996160e-001 4.96707052e-001
      6.27227366e-001 6.84952796e-001</_>
    <_>
      3.36363626e+000 2.27006197e+000 2.89534879e+000 2. 0.
      1.27777779e+000 9.25803900e-001 1.12514019e+000 8.24896455e-001
      1.17029846e+000 1.20629835e+000</_>
    <_>
      1.48299325e+000 7.12891400e-001 1.22857141e+000 2. 1. 3.
      3.08078438e-001 2.36821011e-001 2.86365539e-001 2.76862383e-001
      2.33727485e-001</_>
    <_>
      1.62416112e+000 7.46144533e-001 1.07352936e+000 2. 0. 4.
      2.34352946e-001 1.84906259e-001 2.08595634e-001 2.04084381e-001
      1.91550493e-001</_>
    <_>
      1.79878044e+000 8.56680214e-001 1.01086962e+000 2. 1. 3.
      2.90823549e-001 2.52203166e-001 2.42233217e-001 2.50536740e-001
      2.39412904e-001</_>
    <_>
      1.72530115e+000 9.24478829e-001 1.33593750e+000 2. 2.
      1.71428573e+000 5.60000062e-001 6.38038814e-001 4.65707719e-001
      6.55377865e-001 6.34368598e-001</_>
    <_>
      1.60927153e+000 7.45614171e-001 1. 2. 0. 3.42857146e+000
      2.35921562e-001 3.07322562e-001 1.83823317e-001 2.85637617e-001
      3.49694073e-001</_>
    <_>
      2.41578937e+000 1.76538742e+000 1.46666670e+000 2. 0.
      1.84615386e+000 3.43843132e-001 3.34882259e-001 2.49042183e-001
      2.32717916e-001 3.07839632e-001</_>
    <_>
      2.27634668e+000 1.62200260e+000 1.45535719e+000 4. 1. 2.
      5.74117661e-001 6.13042772e-001 4.86755461e-001 6.29910886e-001
      6.16384923e-001</_>
    <_>
      1.94832039e+000 1.18448889e+000 1.77966106e+000 2. 1.
      1.84615386e+000 6.90196037e-001 8.30636144e-001 5.45805454e-001
      7.60787904e-001 8.75192821e-001</_>
    <_>
      1.57599998e+000 8.27178359e-001 1.08139539e+000 4. 1. 2.
      2.50980407e-001 2.83287942e-001 1.92281216e-001 2.12000862e-001
      3.04109842e-001</_>
    <_>
      1.79104483e+000 8.55837107e-001 1.03030300e+000 2. 0. 3.
      1.99529409e-001 1.50296435e-001 1.71252877e-001 1.48722634e-001
      1.70260385e-001</_>
    <_>
      1.42617452e+000 7.16244519e-001 1.33695650e+000 2. 0.
      2.40000010e+000 3.88392180e-001 4.88062799e-001 3.17481279e-001
      4.86770093e-001 5.35821199e-001</_>
    <_>
      1.89795923e+000 1.13444424e+000 1.60000002e+000 2. 1.
      2.40000010e+000 5.26745081e-001 5.36452532e-001 4.61323589e-001
      5.62875688e-001 5.45357406e-001</_>
    <_>
      2.08309460e+000 1.24917197e+000 1.95283020e+000 2. 0.
      1.60000002e+000 6.02666736e-001 7.14629054e-001 4.66600090e-001
      6.05732083e-001 7.73137391e-001</_>
    <_>
      1.87215912e+000 1.20043457e+000 1.62765956e+000 4. 0.
      2.09090900e+000 5.17960787e-001 5.79394341e-001 4.23418283e-001
      5.88288963e-001 6.25275970e-001</_>
    <_>
      1.28671324e+000 4.96454239e-001 1.04999995e+000 4. 0.
      3.42857146e+000 3.14039230e-001 3.67569327e-001 2.48751223e-001
      3.40731025e-001 3.81750196e-001</_>
    <_>
      1.66666663e+000 7.92922616e-001 1.16176474e+000 2. 0. 3.
      2.52549022e-001 1.79778889e-001 2.20118538e-001 1.84896961e-001
      1.88244075e-001</_>
    <_>
      1.52356017e+000 7.61109591e-001 1.13432837e+000 4. 1.
      1.84615386e+000 5.35529375e-001 5.07290483e-001 4.62681502e-001
      5.29733777e-001 4.67394501e-001</_>
    <_>
      1.33928573e+000 6.15575194e-001 9.45454538e-001 2. 1. 2.
      3.23450983e-001 3.22063744e-001 2.75017232e-001 3.22295010e-001
      3.36266786e-001</_>
    <_>
      1.67716539e+000 9.79167998e-001 1.76530612e+000 2. 1.
      2.18181825e+000 5.67843199e-001 6.02788031e-001 4.49432105e-001
      5.83190203e-001 5.97070575e-001</_>
    <_>
      2.59913802e+000 1.61180961e+000 2.07758617e+000 2. 0.
      1.60000002e+000 7.90588260e-001 8.37686300e-001 6.32983804e-001
      8.08555186e-001 8.58942986e-001</_>
    <_>
      1.64634144e+000 8.36737037e-001 1.38888884e+000 2. 0.
      2.40000010e+000 4.00313735e-001 4.22688663e-001 3.24348450e-001
      4.04250741e-001 4.26346511e-001</_>
    <_>
      2.34895825e+000 1.40612459e+000 2.03260875e+000 2. 0.
      1.71428573e+000 5.26431441e-001 5.32927454e-001 3.84446025e-001
      4.00440097e-001 4.89652336e-001</_>
    <_>
      1.44813275e+000 7.21920133e-001 1.20652175e+000 2. 0.
      2.29999995e+000 3.35372567e-001 4.60182667e-001 2.68693209e-001
      4.31193650e-001 5.10478735e-001</_>
    <_>
      2.02272725e+000 1.34398723e+000 1.67777777e+000 2. 1.
      2.18181825e+000 5.59058785e-001 5.79394341e-001 4.91527587e-001
      6.16439462e-001 5.99187493e-001</_>
    <_>
      1.39906108e+000 5.61185062e-001 8.73015881e-001 4. 0.
      1.50000000e+000 3.11843157e-001 4.22047734e-001 3.18296015e-001
      3.65902781e-001 4.91144240e-001</_>
    <_>
      1.57723582e+000 8.68055165e-001 1.27358496e+000 2. 0.
      2.40000010e+000 4.34509814e-001 4.55375731e-001 3.54125649e-001
      4.54540610e-001 4.91063595e-001</_>
    <_>
      3.38016534e+000 2.08994532e+000 2.64754105e+000 2. 1.
      1.09090912e+000 1.06792152e+000 1.23281527e+000 9.26488161e-001
      1.19278657e+000 1.25008821e+000</_>
    <_>
      1.53594768e+000 8.00540209e-001 1.09803927e+000 2. 1.
      2.66666675e+000 3.61725509e-001 4.31341112e-001 3.01748812e-001
      4.28429604e-001 4.77414548e-001</_>
    <_>
      2.48275852e+000 1.68059969e+000 1.84905660e+000 2. 0.
      1.71428573e+000 6.98352933e-001 6.64316654e-001 5.90694368e-001
      6.84682250e-001 6.77714944e-001</_>
    <_>
      3.24948025e+000 2.18102884e+000 1.94827580e+000 4. 0.
      1.60000002e+000 8.68078470e-001 8.00192297e-001 7.83654511e-001
      8.65849078e-001 7.65899539e-001</_>
    <_>
      2.69130445e+000 1.71829367e+000 1.74576271e+000 4. 1.
      1.91666663e+000 7.05882311e-001 6.47973120e-001 5.78279138e-001
      6.43301845e-001 6.15840554e-001</_>
    <_>
      1.39682543e+000 7.15800881e-001 1.25555551e+000 4. 0.
      2.09999990e+000 3.77098054e-001 2.95145035e-001 3.18296015e-001
      3.06461990e-001 2.45380580e-001</_>
    <_>
      1.62613976e+000 9.00886416e-001 1.25892854e+000 2. 0.
      2.18181825e+000 4.26039219e-001 5.15302062e-001 3.34940225e-001
      4.85240459e-001 5.63824952e-001</_>
    <_>
      2.15012097e+000 1.57207203e+000 1.27118647e+000 2. 0.
      1.71428573e+000 5.24549007e-001 5.47027707e-001 4.58045185e-001
      5.32175839e-001 6.33844435e-001</_>
    <_>
      2.05072474e+000 1.21973979e+000 1.43636358e+000 4. 1.
      1.84615386e+000 5.27686238e-001 4.32943463e-001 4.38607574e-001
      4.21264529e-001 3.95379096e-001</_>
    <_>
      1.66862166e+000 9.24660921e-001 1.37962961e+000 2. 1.
      2.18181825e+000 5.26117682e-001 5.64653099e-001 4.54728007e-001
      5.78681827e-001 5.97494006e-001</_>
    <_>
      1.44221103e+000 7.47140050e-001 1.29999995e+000 2. 0.
      2.29999995e+000 2.52235293e-001 2.38743797e-001 1.91078484e-001
      1.99092969e-001 2.43404806e-001</_>
    <_>
      3.81473684e+000 2.71436596e+000 2.48113203e+000 2. 1.
      1.50000000e+000 9.45254922e-001 7.91539848e-001 8.11511278e-001
      7.97150075e-001 7.09871888e-001</_>
    <_>
      1.94088674e+000 1.15815938e+000 1.80769229e+000 4. 0.
      1.30769229e+000 6.09568596e-001 6.77135110e-001 6.29201055e-001
      8.58093619e-001 7.50657737e-001</_>
    <_>
      1.93382359e+000 1.29404104e+000 2.20454550e+000 2. 0.
      2.40000010e+000 6.37490153e-001 6.87389851e-001 4.95640129e-001
      6.61093831e-001 6.95658326e-001</_>
    <_>
      1.98176289e+000 1.25222063e+000 1.40833330e+000 2. 0.
      1.14285719e+000 6.50980353e-001 7.26165712e-001 6.35563850e-001
      7.26304233e-001 8.81886303e-001</_>
    <_>
      1.73615634e+000 9.77980137e-001 1.47826087e+000 2. 0.
      2.18181825e+000 4.69647080e-001 5.59846163e-001 3.98781776e-001
      5.57374418e-001 6.44086242e-001</_>
    <_>
      1.70000005e+000 8.97217929e-001 1.28947365e+000 4. 0.
      1.50000000e+000 6.73568606e-001 6.72969103e-001 6.03672206e-001
      6.92008376e-001 7.30194271e-001</_>
    <_>
      1.69736838e+000 7.86727667e-001 1.31944442e+000 2. 0. 3.
      2.92392164e-001 3.62441897e-001 2.37946063e-001 3.62843513e-001
      4.03887063e-001</_>
    <_>
      1.90521324e+000 1.12512088e+000 1.28048778e+000 4. 2.
      1.84615386e+000 7.19058871e-001 7.14308619e-001 5.87862134e-001
      7.04755247e-001 7.30214417e-001</_>
    <_>
      2.23774505e+000 1.38438308e+000 2.20909095e+000 4. 0.
      1.33333337e+000 7.89019585e-001 8.44095528e-001 6.73857152e-001
      7.55501270e-001 8.14870834e-001</_>
    <_>
      1.77027023e+000 9.37900126e-001 1.24285710e+000 2. 0. 3.
      2.52549022e-001 3.65966976e-001 2.01301664e-001 3.52726519e-001
      4.43342298e-001</_>
    <_>
      2.31764698e+000 1.63787353e+000 1.19354844e+000 4. 0.
      1.71428573e+000 5.06980419e-001 5.23313582e-001 4.38374788e-001
      5.08748412e-001 5.92635155e-001</_>
    <_>
      2.64903855e+000 1.83237422e+000 2.53260875e+000 2. 1.
      1.71428573e+000 7.75529385e-001 8.68450582e-001 6.13934159e-001
      8.17088902e-001 8.87007177e-001</_>
    <_>
      1.97427654e+000 1.25238574e+000 1.61363637e+000 2. 0. 2.
      4.07843143e-001 4.19484079e-001 2.98392832e-001 3.31231236e-001
      4.27233607e-001</_>
    <_>
      1.51937985e+000 8.03102255e-001 1.15217388e+000 2. 1.
      2.44444442e+000 3.15921575e-001 4.02179122e-001 2.46384561e-001
      3.53853583e-001 4.14935350e-001</_>
    <_>
      1.48000002e+000 7.06037462e-001 9.88636374e-001 2. 0.
      2.22222233e+000 2.75764704e-001 3.37445915e-001 2.36956716e-001
      3.37886453e-001 3.81871164e-001</_>
    <_>
      1.95529413e+000 1.06952500e+000 1.86111116e+000 4. 0.
      1.33333337e+000 9.32392120e-001 9.63948071e-001 8.83888304e-001
      9.91010070e-001 9.31361616e-001</_>
    <_>
      1.42909086e+000 7.11891890e-001 1.29999995e+000 2. 0.
      1.84615386e+000 2.07058817e-001 4.18522656e-001 1.34239912e-001
      2.96130300e-001 5.00196576e-001</_>
    <_>
      1.71241832e+000 8.53085160e-001 1.12790692e+000 2. 0.
      3.42857146e+000 3.04627448e-001 3.11168075e-001 2.50109136e-001
      3.04395676e-001 3.58484298e-001</_>
    <_>
      2.24390244e+000 1.00681794e+000 2.04838705e+000 2. 0. 4.
      4.17882353e-001 4.11472499e-001 3.33970279e-001 4.08732295e-001
      4.12899077e-001</_>
    <_>
      1.62305295e+000 8.91967297e-001 1.51086962e+000 2. 1.
      2.09090900e+000 3.85254920e-001 3.56994092e-001 2.85124004e-001
      2.70448685e-001 3.13142002e-001</_>
    <_>
      1.74285710e+000 1.19863868e+000 1.74000001e+000 4. 0.
      2.18181825e+000 5.50274491e-001 7.11424470e-001 4.27123457e-001
      6.60771787e-001 7.61887491e-001</_>
    <_>
      2.06439400e+000 1.36224151e+000 1.27499998e+000 2. 0.
      1.71428573e+000 3.13098043e-001 2.45153025e-001 2.55831778e-001
      2.29604974e-001 2.58606255e-001</_>
    <_>
      1.67631578e+000 9.53093112e-001 1.58928573e+000 2. 1.
      1.84615386e+000 5.61882377e-001 7.09181249e-001 4.42623138e-001
      6.32433474e-001 7.59931862e-001</_>
    <_>
      1.24038458e+000 4.27317053e-001 1.25925922e+000 2. 0. 8.
      2.08000004e-001 2.30091318e-001 1.81514859e-001 2.36152872e-001
      2.56368399e-001</_>
    <_>
      1.57894742e+000 8.21794510e-001 1.04411769e+000 2. 0.
      2.33333325e+000 2.11137265e-001 2.20157012e-001 1.81786448e-001
      2.30571076e-001 2.33566195e-001</_>
    <_>
      2.11574078e+000 1.19626439e+000 1.66901410e+000 4. 1.
      1.33333337e+000 8.04392219e-001 8.66848290e-001 7.13139772e-001
      8.34773540e-001 8.96745026e-001</_>
    <_>
      1.95399511e+000 1.08269000e+000 1.43661976e+000 4. 0.
      1.41176474e+000 6.78588271e-001 5.80676198e-001 5.82488656e-001
      6.07905746e-001 4.96446609e-001</_>
    <_>
      2.55344415e+000 1.41760862e+000 2.42622948e+000 4. 0.
      1.14285719e+000 9.93254900e-001 9.17801619e-001 9.46197331e-001
      9.04250741e-001 8.13620865e-001</_>
    <_>
      2.02493072e+000 1.39327192e+000 1.72972977e+000 2. 0. 2.
      4.92235333e-001 6.36756957e-001 4.61827964e-001 6.97026610e-001
      7.60093153e-001</_>
    <_>
      1.52845526e+000 6.78654850e-001 1.21212125e+000 2. 0. 4.
      2.47215688e-001 2.25925341e-001 2.07839072e-001 2.30302706e-001
      2.37558097e-001</_>
    <_>
      1.63194442e+000 7.70520449e-001 1.09756100e+000 2. 0. 4.
      2.80156881e-001 3.27191174e-001 2.31913030e-001 3.18618536e-001
      3.68887424e-001</_>
    <_>
      2.39246130e+000 1.42010772e+000 2.01538467e+000 2. 0.
      1.26315784e+000 8.14431429e-001 9.44399953e-001 6.87300563e-001
      8.55624735e-001 1.01815510e+000</_>
    <_>
      1.90227270e+000 1.05399430e+000 1.49206352e+000 2. 2.
      1.84615386e+000 6.23372555e-001 6.72648609e-001 5.06445229e-001
      6.45368159e-001 6.85739040e-001</_>
    <_>
      1.95662653e+000 1.20362830e+000 1.68750000e+000 2. 1.
      1.84615386e+000 5.63764691e-001 6.20413423e-001 4.74553615e-001
      6.13407016e-001 6.39388740e-001</_>
    <_>
      1.65084743e+000 9.79514360e-001 1.64130437e+000 2. 0. 2.
      4.69647080e-001 4.62746382e-001 3.60992849e-001 4.37500000e-001
      4.90156353e-001</_>
    <_>
      2.25000000e+000 1.33697414e+000 1.95000005e+000 2. 0.
      1.60000002e+000 3.51999998e-001 6.84505701e-001 2.34066293e-001
      5.13900816e-001 7.98701644e-001</_>
    <_>
      1.75925922e+000 8.15025210e-001 1.19047618e+000 2. 0.
      3.42857146e+000 2.90509820e-001 3.01874697e-001 2.23513335e-001
      2.69965649e-001 2.93545425e-001</_>
    <_>
      1.68975067e+000 9.46274340e-001 1.61000001e+000 4. 0.
      1.64285719e+000 5.20784378e-001 5.54398358e-001 4.25144792e-001
      5.19912004e-001 5.43986440e-001</_>
    <_>
      1.40289855e+000 7.20300078e-001 1.37804878e+000 2. 0. 3.
      3.58274519e-001 3.83912861e-001 2.88615793e-001 3.70196462e-001
      4.32979524e-001</_>
    <_>
      1.52419353e+000 6.77563369e-001 1.08333337e+000 2. 0.
      3.42857146e+000 1.92313731e-001 2.01249793e-001 1.42251626e-001
      1.54170245e-001 2.07981780e-001</_>
    <_>
      1.41176474e+000 6.70691431e-001 9.56140339e-001 4. 1.
      2.09999990e+000 3.49490196e-001 4.31982040e-001 2.88887382e-001
      4.18768823e-001 4.52818006e-001</_>
    <_>
      1.76315784e+000 8.46070707e-001 9.22222197e-001 4. 0.
      2.75000000e+000 4.48627472e-001 2.90979028e-001 5.81499338e-001
      4.80329514e-001 3.03908229e-001</_>
    <_>
      1.76506019e+000 8.35353434e-001 1.18918920e+000 2. 1.
      2.50000000e+000 2.76078433e-001 2.78160572e-001 2.32165217e-001
      2.76111007e-001 2.62779623e-001</_>
    <_>
      2.12351537e+000 1.41385841e+000 1.42592597e+000 4. 1.
      1.84615386e+000 4.70901996e-001 5.74907899e-001 3.61923993e-001
      5.24447203e-001 5.93421459e-001</_>
    <_>
      2.15365243e+000 1.29873729e+000 1.81395352e+000 2. 1.
      2.40000010e+000 5.19215703e-001 5.87405860e-001 4.16706294e-001
      5.73395252e-001 6.05497956e-001</_>
    <_>
      3.13333344e+000 1.80642593e+000 2.24285722e+000 4. 0.
      1.50000000e+000 9.91686225e-001 1.14629066e+000 7.82878578e-001
      1.01698697e+000 1.17053258e+000</_>
    <_>
      2.37122965e+000 1.33018088e+000 1.66129029e+000 4. 2.
      1.53333330e+000 6.84862733e-001 7.93783069e-001 5.65728068e-001
      7.64491200e-001 8.10092628e-001</_>
    <_>
      1.74457836e+000 1.01663899e+000 1.25892854e+000 2. 0. 2.
      4.60549027e-001 5.21711290e-001 3.80566269e-001 5.23212731e-001
      5.75840950e-001</_>
    <_>
      1.50909090e+000 7.83296704e-001 1.09259260e+000 2. 1.
      2.40000010e+000 3.85568649e-001 4.69155610e-001 3.22427958e-001
      4.50488448e-001 5.22172153e-001</_>
    <_>
      1.71296299e+000 8.92882645e-001 1.83749998e+000 2. 0.
      2.18181825e+000 5.55607915e-001 5.01201749e-001 4.94379193e-001
      5.47337890e-001 5.34026861e-001</_>
    <_>
      2.12590790e+000 1.28452587e+000 1.11206901e+000 2. 0. 2.
      4.03450996e-001 4.80371773e-001 3.26792717e-001 4.30281222e-001
      5.27272940e-001</_>
    <_>
      2.80778027e+000 1.98267877e+000 2.13953495e+000 2. 1.
      1.76923072e+000 6.03294134e-001 5.87085426e-001 4.81614769e-001
      5.30189991e-001 5.18018961e-001</_>
    <_>
      1.44951141e+000 7.65645564e-001 1.20454550e+000 2. 0. 2.
      3.94666672e-001 3.66928399e-001 3.68965775e-001 4.06773329e-001
      3.94129097e-001</_>
    <_>
      1.90588236e+000 8.89461577e-001 1.26829267e+000 4. 1.
      3.42857146e+000 3.11529428e-001 3.85194659e-001 2.42349595e-001
      3.57771575e-001 4.01971757e-001</_>
    <_>
      1.53333330e+000 8.70620370e-001 1.25490201e+000 2. 0.
      2.40000010e+000 4.51137275e-001 4.14356649e-001 3.90614867e-001
      4.40425098e-001 4.56386536e-001</_>
    <_>
      1.59452736e+000 8.90675783e-001 1.47115386e+000 2. 1.
      1.91666663e+000 5.00705838e-001 5.64332664e-001 4.08228993e-001
      5.46854854e-001 5.68441868e-001</_>
    <_>
      1.46153843e+000 6.82985663e-001 9.52380955e-001 4. 0.
      2.40000010e+000 3.79921585e-001 4.24931884e-001 3.12301785e-001
      4.08463955e-001 4.33826268e-001</_>
    <_>
      2.51612902e+000 1.49704301e+000 1.95901644e+000 2. 1.
      1.84615386e+000 7.95607805e-001 8.58195841e-001 6.39734626e-001
      8.15237224e-001 8.73096049e-001</_>
    <_>
      1.76156580e+000 1.12085521e+000 1.61538458e+000 2. 0.
      2.40000010e+000 4.43294138e-001 3.51866663e-001 3.82991105e-001
      4.04921651e-001 3.74149472e-001</_>
    <_>
      2.02857137e+000 1.16461432e+000 1.56338024e+000 4. 1.
      1.33333337e+000 7.32549071e-001 8.92805636e-001 6.49259448e-001
      8.26105654e-001 9.63619351e-001</_>
    <_>
      2.07591629e+000 1.32119095e+000 1.48275864e+000 2. 0.
      1.63636363e+000 3.05882365e-001 4.56657588e-001 2.88790405e-001
      4.94337678e-001 5.77877223e-001</_>
    <_>
      1.39512193e+000 6.80728197e-001 1.11249995e+000 2. 0.
      2.20000005e+000 2.19921559e-001 2.23682091e-001 1.60137355e-001
      1.72633111e-001 2.13546231e-001</_>
    <_>
      2.04474282e+000 1.13032746e+000 1.72142851e+000 4. 0.
      1.50000000e+000 8.64313722e-001 8.80948603e-001 7.57931709e-001
      9.09564197e-001 9.08720672e-001</_>
    <_>
      1.47326207e+000 7.47960925e-001 1.18333328e+000 2. 0.
      1.71428573e+000 5.00392199e-001 4.34866190e-001 4.55814332e-001
      4.54567432e-001 4.26467478e-001</_>
    <_>
      1.93939400e+000 9.38709438e-001 1.01190472e+000 2. 1.
      2.75000000e+000 2.78588235e-001 2.90338099e-001 2.44114876e-001
      2.93097913e-001 3.05440485e-001</_>
    <_>
      1.88484848e+000 8.76674592e-001 1.25581396e+000 2. 1.
      3.42857146e+000 3.26274514e-001 4.00256395e-001 2.53271133e-001
      3.70491624e-001 4.26911026e-001</_>
    <_>
      2.19904065e+000 1.40782297e+000 1.83333337e+000 2. 0. 2.
      5.44000030e-001 6.48293555e-001 3.94067854e-001 5.43446779e-001
      6.97513163e-001</_>
    <_>
      1.31055903e+000 4.62722510e-001 1.09090912e+000 4. 0. 3.
      3.92470598e-001 4.24611449e-001 3.26462924e-001 4.15119171e-001
      4.55822021e-001</_>
    <_>
      2.24864864e+000 1.42859256e+000 1.79999995e+000 2. 1.
      2.40000010e+000 5.51529408e-001 6.35475099e-001 4.48772550e-001
      6.27254188e-001 6.70215011e-001</_>
    <_>
      1.75757575e+000 8.10174048e-001 1.11956525e+000 2. 1.
      2.87500000e+000 3.13098043e-001 3.68851125e-001 2.47645468e-001
      3.41026187e-001 3.75540584e-001</_>
    <_>
      2.04221630e+000 1.23634982e+000 1.62500000e+000 2. 0.
      1.50000000e+000 5.97960830e-001 5.76510191e-001 4.96338516e-001
      5.72992682e-001 5.43482423e-001</_>
    <_>
      1.91250002e+000 9.37999845e-001 1.06976748e+000 2. 0. 4.
      2.85803914e-001 2.99310982e-001 2.33736515e-001 2.92990565e-001
      3.24674159e-001</_>
    <_>
      1.44848490e+000 7.89369226e-001 1.02941179e+000 2. 0. 3.
      1.42431378e-001 2.72392273e-001 9.83520746e-002 2.07277805e-001
      3.43827188e-001</_>
    <_>
      1.44915259e+000 6.05027795e-001 1.01470590e+000 2. 0.
      3.28571439e+000 1.76313728e-001 2.15029642e-001 1.38158470e-001
      1.95980042e-001 2.48162836e-001</_>
    <_>
      2.51641130e+000 1.61240196e+000 1.84210527e+000 2. 1.
      1.71428573e+000 6.93647027e-001 8.25829208e-001 5.67279994e-001
      7.62666404e-001 8.51584196e-001</_>
    <_>
      2.02724791e+000 1.20368135e+000 1.81250000e+000 2. 0.
      1.50000000e+000 5.09176493e-001 4.52812076e-001 4.51158613e-001
      3.88015270e-001 4.40741539e-001</_>
    <_>
      2.92857146e+000 1.94896626e+000 3.04761910e+000 2. 0.
      1.60000002e+000 8.39529395e-001 1.00400579e+000 6.64099574e-001
      9.31166828e-001 1.02319539e+000</_>
    <_>
      1.43537414e+000 6.17962718e-001 1. 2. 0. 3.28571439e+000
      2.10196078e-001 2.59573758e-001 1.61398277e-001 2.10900605e-001
      2.57618368e-001</_>
    <_>
      2.38823533e+000 1.54077232e+000 1.85555553e+000 2. 0.
      2.09090900e+000 5.94196081e-001 5.54718792e-001 4.97502416e-001
      5.88449955e-001 5.33724487e-001</_>
    <_>
      1.59788358e+000 7.67870545e-001 1.45945942e+000 2. 0.
      2.55555558e+000 3.32235307e-001 3.04758847e-001 2.62795955e-001
      2.92668521e-001 2.95339763e-001</_>
    <_>
      1.91253650e+000 1.20419109e+000 1.68085110e+000 2. 1.
      2.40000010e+000 5.28627515e-001 5.27479589e-001 4.24659818e-001
      5.11995494e-001 5.15760958e-001</_>
    <_>
      1.62402093e+000 9.33645844e-001 1.68627453e+000 2. 0.
      2.18181825e+000 5.35529375e-001 5.81958055e-001 4.15464759e-001
      5.42802691e-001 6.26848519e-001</_>
    <_>
      2.87283230e+000 1.88115430e+000 2.18292689e+000 2. 0.
      1.84615386e+000 6.38431430e-001 5.15302062e-001 5.38336933e-001
      5.39314091e-001 5.10398090e-001</_>
    <_>
      3.00678730e+000 2.22031927e+000 2.08163261e+000 2. 1.
      1.84615386e+000 6.80156827e-001 6.15606487e-001 5.48016965e-001
      5.93575597e-001 5.67716062e-001</_>
    <_>
      1.86419749e+000 9.46117282e-001 1.11363637e+000 2. 0.
      2.87500000e+000 3.16862762e-001 2.70469487e-001 2.66617537e-001
      2.77399123e-001 2.38465339e-001</_>
    <_>
      1.40625000e+000 7.11924136e-001 1.14473689e+000 2. 0.
      2.66666675e+000 3.18745106e-001 2.93863177e-001 3.07005912e-001
      3.36490989e-001 2.83928603e-001</_>
    <_>
      1.60839164e+000 7.75814176e-001 9.75000024e-001 2. 0. 4.
      2.37803936e-001 2.51562238e-001 2.01359868e-001 2.43908331e-001
      3.00823569e-001</_>
    <_>
      1.57446814e+000 6.96842372e-001 1.19444442e+000 2. 1.
      3.83333325e+000 2.52862751e-001 2.39384726e-001 2.02795386e-001
      2.35481963e-001 2.26106599e-001</_>
    <_>
      2.20408154e+000 1.38229215e+000 1.34722221e+000 2. 0. 2.
      2.12078422e-001 3.98333609e-001 1.43551350e-001 3.07642758e-001
      4.76587951e-001</_>
    <_>
      1.67790258e+000 9.28733230e-001 1.43421054e+000 2. 0.
      2.40000010e+000 2.77960777e-001 4.09229279e-001 1.88711822e-001
      3.25971484e-001 4.63402599e-001</_>
    <_>
      1.83769631e+000 1.11150241e+000 1.90384614e+000 4. 0. 2.
      6.27137303e-001 7.07258463e-001 4.90344256e-001 6.58759117e-001
      6.92674458e-001</_>
    <_>
      1.26666665e+000 5.04791856e-001 9.44444418e-001 2. 1.
      3.42857146e+000 2.57568628e-001 2.34577790e-001 2.13561729e-001
      2.31778666e-001 2.29554147e-001</_>
    <_>
      1.70223320e+000 8.97014618e-001 1.74509799e+000 2. 0.
      1.60000002e+000 4.91607875e-001 6.68482602e-001 3.92612934e-001
      5.19858301e-001 6.54065967e-001</_>
    <_>
      1.58706462e+000 9.94328141e-001 1.27941179e+000 2. 0.
      2.29999995e+000 2.74823546e-001 1.98045179e-001 2.31777236e-001
      2.01991200e-001 2.00441524e-001</_>
    <_>
      1.63888884e+000 8.13182294e-001 1.13235295e+000 2. 0.
      3.28571439e+000 2.19607860e-001 2.88735807e-001 1.77809685e-001
      2.74474025e-001 3.14976662e-001</_>
    <_>
      1.56103897e+000 8.19907486e-001 1.16901410e+000 4. 0.
      1.60000002e+000 5.14509797e-001 5.79394341e-001 4.27162260e-001
      5.54503024e-001 6.24913037e-001</_>
    <_>
      1.85889566e+000 9.71225917e-001 2. 2. 0. 1.25000000e+000
      2.16784328e-001 7.08219856e-002 1.88847616e-001 7.46028349e-002
      3.62294726e-002</_>
    <_>
      1.55479455e+000 1.04048741e+000 1.14864862e+000 2. 0.
      2.40000010e+000 2.94901967e-001 1.93879187e-001 2.72087991e-001
      2.40312383e-001 2.01187491e-001</_>
    <_>
      1.92820513e+000 1.12772715e+000 1.54166663e+000 2. 1.
      2.40000010e+000 5.05725503e-001 4.20125008e-001 4.20683056e-001
      4.29100513e-001 3.95741969e-001</_>
    <_>
      1.71025646e+000 1.01053298e+000 1.53125000e+000 2. 0.
      2.40000010e+000 4.26980406e-001 4.92228806e-001 3.13465714e-001
      4.22418416e-001 5.27857602e-001</_>
    <_>
      2.42187500e+000 1.31378818e+000 1.64935064e+000 4. 0.
      1.33333337e+000 7.27529407e-001 9.75164294e-001 5.73216021e-001
      8.26534986e-001 9.86905396e-001</_>
    <_>
      1.56521738e+000 7.89023638e-001 1.63888884e+000 2. 0.
      2.40000010e+000 4.24784333e-001 3.37445915e-001 3.73388708e-001
      3.69820774e-001 3.52274686e-001</_>
    <_>
      1.90864193e+000 1.19010293e+000 1.23287666e+000 4. 0. 2.
      6.07686281e-001 6.74571395e-001 5.00703216e-001 6.41503870e-001
      7.20658064e-001</_>
    <_>
      1.48529410e+000 6.52881563e-001 1.07352936e+000 2. 0.
      3.42857146e+000 2.06431389e-001 2.18554720e-001 1.66985139e-001
      2.04594254e-001 2.45723337e-001</_>
    <_>
      1.74503314e+000 1.02512729e+000 1.75000000e+000 2. 0.
      2.18181825e+000 4.50196087e-001 5.58884799e-001 3.44697833e-001
      4.92190838e-001 5.97776234e-001</_>
    <_>
      1.93604648e+000 1.22307396e+000 1.88043475e+000 2. 1.
      2.18181825e+000 5.70666671e-001 6.87710285e-001 4.52050954e-001
      6.42067432e-001 7.26121724e-001</_>
    <_>
      2.25116277e+000 1.43775856e+000 1.34545457e+000 2. 1.
      2.40000010e+000 5.14509797e-001 4.10511136e-001 4.33447480e-001
      4.07417357e-001 3.74572843e-001</_>
    <_>
      2.58796287e+000 1.76295304e+000 1.53703701e+000 4. 0.
      2.18181825e+000 4.99764711e-001 5.74266970e-001 3.81904781e-001
      5.13766646e-001 5.65760434e-001</_>
    <_>
      2.07600951e+000 1.26675725e+000 1.25925922e+000 2. 1. 2.
      4.48627472e-001 4.03460979e-001 3.72923136e-001 3.95448685e-001
      3.75943810e-001</_>
    <_>
      2.95416665e+000 1.83541071e+000 2.04477620e+000 2. 0.
      1.20000005e+000 1.01364708e+000 9.90225911e-001 9.21386242e-001
      1.04991412e+000 1.05515063e+000</_>
    <_>
      1.59661019e+000 9.47783530e-001 1.30487800e+000 2. 0.
      2.40000010e+000 3.40078443e-001 2.82006085e-001 2.80468285e-001
      2.96720684e-001 2.77940750e-001</_>
    <_>
      1.74052477e+000 9.31950986e-001 1.50000000e+000 2. 1.
      1.64285719e+000 4.54274505e-001 6.43486619e-001 3.60430270e-001
      5.92931509e-001 6.62936866e-001</_>
    <_>
      1.54729724e+000 7.00718343e-001 1.05555558e+000 2. 0.
      3.42857146e+000 2.10509807e-001 2.54125953e-001 1.68440044e-001
      2.16294557e-001 2.73767412e-001</_>
    <_>
      2.13440871e+000 1.36318684e+000 1.47000003e+000 2. 1.
      2.40000010e+000 4.58352953e-001 5.78112483e-001 3.51642609e-001
      5.37006199e-001 6.23622775e-001</_>
    <_>
      2.68644071e+000 1.50956917e+000 2.03731346e+000 2. 0.
      1.41176474e+000 8.48941207e-001 1.01394010e+000 6.91025138e-001
      9.41901028e-001 1.06269097e+000</_>
    <_>
      2.26578069e+000 1.55383730e+000 1.91428566e+000 2. 0.
      2.18181825e+000 4.61176485e-001 3.42252851e-001 3.84135664e-001
      3.56644511e-001 3.31730545e-001</_>
    <_>
      2.84955764e+000 1.78846467e+000 1.55714285e+000 4. 1.
      1.71428573e+000 7.21254945e-001 7.43791044e-001 5.76862991e-001
      7.07063138e-001 7.30335414e-001</_>
    <_>
      1.69211817e+000 8.57471883e-001 1.63043475e+000 4. 0.
      1.41176474e+000 6.67294145e-001 7.18474627e-001 5.13816833e-001
      5.79003870e-001 6.86485052e-001</_>
    <_>
      2.43269229e+000 1.65694594e+000 2.38372087e+000 2. 1. 2.
      6.79215670e-001 8.11087966e-001 5.32944024e-001 7.77345419e-001
      8.51100326e-001</_>
    <_>
      1.84691358e+000 1.21157849e+000 1.33088231e+000 2. 0.
      1.60000002e+000 6.14274502e-001 6.17208779e-001 5.26678205e-001
      6.25885606e-001 6.77412510e-001</_>
    <_>
      1.99367094e+000 1.02189219e+000 1.20408165e+000 2. 2.
      2.87500000e+000 3.75843138e-001 3.40650558e-001 2.99285173e-001
      3.30640852e-001 3.10581535e-001</_>
    <_>
      1.73026311e+000 8.10866952e-001 1.02272725e+000 4. 1. 4.
      2.81411767e-001 2.65662551e-001 2.33775318e-001 2.64464378e-001
      2.62073964e-001</_>
    <_>
      1.70434785e+000 9.65856969e-001 1.42727268e+000 2. 1. 2.
      5.41803956e-001 5.86124003e-001 4.59577709e-001 5.84880829e-001
      6.07554376e-001</_>
    <_>
      1.46666670e+000 7.00396717e-001 9.55555558e-001 4. 1.
      2.37500000e+000 2.35921562e-001 2.98990548e-001 1.87392712e-001
      2.66799092e-001 3.05017084e-001</_>
    <_>
      1.67714286e+000 9.59936202e-001 9.83606577e-001 2. 3.
      1.89999998e+000 3.98117661e-001 2.98029184e-001 3.31972182e-001
      2.97311068e-001 2.46166885e-001</_>
    <_>
      1.59090912e+000 7.43924618e-001 9.31818187e-001 2. 1.
      2.62500000e+000 2.39372551e-001 2.66623914e-001 1.97033927e-001
      2.42244527e-001 2.64553785e-001</_>
    <_>
      1.89440989e+000 8.88871729e-001 1.09090912e+000 2. 1. 4.
      3.02117646e-001 3.34561765e-001 2.47509688e-001 3.27286422e-001
      3.67455989e-001</_>
    <_>
      1.60526311e+000 8.70469213e-001 9.32203412e-001 2. 4. 2.
      3.75529408e-001 2.71751344e-001 3.23203921e-001 2.80807197e-001
      2.26731583e-001</_>
    <_>
      2.31847143e+000 1.44996476e+000 1.90697670e+000 2. 0.
      1.41176474e+000 3.31607848e-001 7.31934011e-001 2.11156279e-001
      5.01046598e-001 8.58459115e-001</_>
    <_>
      1.96732020e+000 9.86300290e-001 1.16666663e+000 2. 1.
      2.66666675e+000 2.04549015e-001 2.45793954e-001 1.72998771e-001
      2.38541231e-001 2.46025741e-001</_>
    <_>
      2.00476193e+000 1.30747890e+000 1.56603777e+000 2. 0. 2.
      5.62196136e-001 5.86444497e-001 4.61653382e-001 5.76857030e-001
      6.31566226e-001</_>
    <_>
      1.56701028e+000 7.58555532e-001 1.21590912e+000 2. 0.
      2.55555558e+000 3.58901978e-001 2.68226266e-001 3.06656718e-001
      2.91273117e-001 2.34292001e-001</_>
    <_>
      1.83076918e+000 1.09781921e+000 1.21093750e+000 2. 1.
      1.26315784e+000 4.66823548e-001 6.88351214e-001 3.81730199e-001
      6.13943756e-001 8.43136668e-001</_>
    <_>
      1.70909095e+000 8.60008299e-001 9.70588207e-001 2. 0. 3.
      3.06509823e-001 3.54109943e-001 2.52941370e-001 3.52672815e-001
      3.96790355e-001</_>
    <_>
      1.63703704e+000 7.56281435e-001 1.51923072e+000 2. 0.
      5.25000000e+000 2.39058822e-001 2.40346089e-001 1.98139668e-001
      2.37655655e-001 2.39392757e-001</_>
    <_>
      2.82017541e+000 1.84441686e+000 1.81506848e+000 4. 2.
      1.50000000e+000 9.08549070e-001 1.06232977e+000 7.62102425e-001
      9.99892712e-001 1.11339605e+000</_>
    <_>
      1.47552443e+000 7.69453228e-001 1.19318187e+000 2. 0. 2.
      3.14666688e-001 3.05399776e-001 2.56782323e-001 3.03885818e-001
      3.15984726e-001</_>
    <_>
      1.99164343e+000 1.19069624e+000 1.77777779e+000 2. 2.
      1.84615386e+000 6.77647114e-001 6.97644591e-001 5.68696082e-001
      7.10417569e-001 7.05295324e-001</_>
    <_>
      1.60000002e+000 9.40744400e-001 1.03278685e+000 4. 0.
      1.91666663e+000 4.82509822e-001 4.08267915e-001 4.51876372e-001
      4.63020623e-001 3.79431665e-001</_>
    <_>
      1.86046517e+000 9.35883999e-001 9.62264180e-001 4. 0.
      2.50000000e+000 3.11529428e-001 3.92885745e-001 2.51273066e-001
      3.64534140e-001 3.98504049e-001</_>
    <_>
      1.77075100e+000 9.95451212e-001 1.24193549e+000 4. 0.
      2.40000010e+000 5.19215703e-001 5.86764932e-001 4.26599681e-001
      5.85632265e-001 6.04973733e-001</_>
    <_>
      1.50917435e+000 6.37086451e-001 1.32727277e+000 4. 0.
      2.66666675e+000 4.45176482e-001 4.74923909e-001 3.42602760e-001
      4.34118748e-001 4.71124291e-001</_>
    <_>
      1.61146498e+000 7.54178882e-001 1.18888891e+000 2. 0. 3.
      3.31921577e-001 3.51546228e-001 2.67393500e-001 3.46151769e-001
      3.86830777e-001</_>
    <_>
      1.76449275e+000 1.04203677e+000 1.62820518e+000 2. 0.
      2.18181825e+000 4.85019594e-001 3.65326047e-001 4.43340868e-001
      4.19547021e-001 3.88100922e-001</_>
    <_>
      1.47035575e+000 7.62323439e-001 1.18421054e+000 2. 0.
      2.66666675e+000 2.81098038e-001 3.44496071e-001 2.34958649e-001
      3.53451073e-001 3.97112936e-001</_>
    <_>
      2.82875276e+000 1.80153155e+000 1.82394361e+000 2. 1.
      1.26315784e+000 8.29490185e-001 9.29017782e-001 6.81519687e-001
      8.75805080e-001 8.95212770e-001</_>
    <_>
      1.68691587e+000 8.91348243e-001 9.16666687e-001 4. 0.
      1.89999998e+000 4.34823543e-001 3.10527146e-001 5.26135087e-001
      4.77860689e-001 3.10379952e-001</_>
    <_>
      2.25813460e+000 1.23776615e+000 2.22131157e+000 2. 2.
      1.50000000e+000 9.86980438e-001 9.68434572e-001 8.52694988e-001
      9.97638464e-001 9.63498354e-001</_>
    <_>
      1.55629134e+000 7.06036031e-001 7.90697694e-001 4. 1.
      3.28571439e+000 1.98901966e-001 1.45489499e-001 1.74667075e-001
      1.38793483e-001 1.33345425e-001</_>
    <_>
      1.70949721e+000 9.62694824e-001 1.61458337e+000 2. 0.
      1.50000000e+000 4.44862753e-001 4.14997578e-001 3.45531970e-001
      2.98733354e-001 4.02838677e-001</_>
    <_>
      1.78235292e+000 7.78184354e-001 1.20192313e+000 2. 1. 3.
      3.79921585e-001 4.14997578e-001 2.89178371e-001 3.81789386e-001
      4.21830416e-001</_>
    <_>
      1.77458036e+000 9.63121593e-001 1.43506491e+000 4. 0.
      1.33333337e+000 8.68392229e-001 8.16535830e-001 8.33412528e-001
      9.50434744e-001 8.56886506e-001</_>
    <_>
      1.67999995e+000 7.85875320e-001 1.34615386e+000 4. 0. 3.
      4.41411763e-001 4.79730844e-001 3.44038278e-001 4.50944602e-001
      4.88039434e-001</_>
    <_>
      1.83660126e+000 8.88984978e-001 1.12000000e+000 2. 2.
      2.87500000e+000 3.53882372e-001 3.16295445e-001 2.82408178e-001
      3.09843302e-001 2.99130052e-001</_>
    <_>
      1.39252341e+000 6.37709260e-001 1.23255813e+000 2. 0.
      2.20000005e+000 3.30352962e-001 3.35202694e-001 2.68576801e-001
      3.21731448e-001 3.25843483e-001</_>
    <_>
      1.40662646e+000 6.63382649e-001 1.38732398e+000 4. 0.
      1.50000000e+000 6.92078471e-001 6.87710285e-001 6.59327447e-001
      7.26357877e-001 6.73541605e-001</_>
    <_>
      1.39999998e+000 6.47541761e-001 8.08333337e-001 4. 1. 3.
      3.11843157e-001 3.36804986e-001 2.66345948e-001 3.44756365e-001
      3.75822842e-001</_>
    <_>
      1.83108103e+000 8.41399372e-001 1.41935480e+000 2. 0.
      4.80000019e+000 2.55058825e-001 2.71430850e-001 1.98663428e-001
      2.55071938e-001 2.89815634e-001</_>
    <_>
      1.65151513e+000 8.25583816e-001 1.06818187e+000 2. 1. 3.
      2.64784306e-001 2.31052712e-001 2.07063124e-001 1.89807862e-001
      2.21429214e-001</_>
    <_>
      3.38600445e+000 2.11251950e+000 2.77999997e+000 2. 1.
      1.33333337e+000 8.05019617e-001 1.12834477e+000 6.01596534e-001
      9.47563350e-001 1.18549204e+000</_>
    <_>
      1.51587307e+000 7.94166505e-001 1.43421054e+000 2. 0. 2.
      2.51921564e-001 4.14356649e-001 1.66344970e-001 3.16981554e-001
      4.79007274e-001</_>
    <_>
      1.33231711e+000 6.59770489e-001 1.34848487e+000 2. 0.
      2.25000000e+000 3.46352935e-001 3.85515153e-001 3.41885000e-001
      4.58243906e-001 4.25177157e-001</_>
    <_>
      1.58666670e+000 7.49992609e-001 1.06097555e+000 2. 0. 3.
      2.59450972e-001 3.15975010e-001 2.10690707e-001 2.90468037e-001
      3.58262509e-001</_>
    <_>
      1.68354428e+000 8.19760740e-001 1.38372087e+000 2. 1. 3.
      3.84627461e-001 4.45761919e-001 3.10614079e-001 4.33313668e-001
      4.70660597e-001</_>
    <_>
      2.11263728e+000 1.26054001e+000 1.88372087e+000 2. 0.
      2.40000010e+000 5.26745081e-001 5.51834643e-001 4.16900277e-001
      5.14866889e-001 5.28180182e-001</_>
    <_>
      2.18055558e+000 1.23408067e+000 1.79365075e+000 4. 1.
      1.71428573e+000 7.81803966e-001 8.49543333e-001 6.67436123e-001
      8.40060115e-001 8.81503224e-001</_>
    <_>
      2.09873414e+000 1.45927787e+000 1.10655737e+000 4. 0.
      2.40000010e+000 3.99686277e-001 4.34225261e-001 2.98858404e-001
      3.83238554e-001 4.50822085e-001</_>
    <_>
      1.54678357e+000 7.69961357e-001 1.02542377e+000 2. 2.
      2.44444442e+000 3.69882375e-001 4.29418385e-001 2.93096930e-001
      3.99125159e-001 4.40197170e-001</_>
    <_>
      2.47665858e+000 1.66885638e+000 2.16279078e+000 2. 1. 2.
      5.53098083e-001 7.39945531e-001 4.05532569e-001 6.36324584e-001
      7.68923700e-001</_>
    <_>
      2.25853658e+000 1.55280638e+000 1.67021275e+000 2. 1.
      1.84615386e+000 5.24862766e-001 5.82598984e-001 4.30557042e-001
      5.59172392e-001 5.84308624e-001</_>
    <_>
      1.80254781e+000 8.98969591e-001 1.10465121e+000 2. 0.
      3.42857146e+000 2.96784312e-001 2.98349619e-001 2.43726909e-001
      2.92078137e-001 3.38282883e-001</_>
    <_>
      2.37045455e+000 1.51553762e+000 1.76530612e+000 2. 1.
      1.64285719e+000 5.81647038e-001 6.59189224e-001 4.83806849e-001
      5.99694073e-001 6.52473271e-001</_>
    <_>
      3.12162161e+000 1.98339522e+000 2.79166675e+000 2. 1.
      1.71428573e+000 8.23215723e-001 1.01906753e+000 6.12188280e-001
      9.23518717e-001 1.05373943e+000</_>
    <_>
      1.94235587e+000 1.15651596e+000 1.06896555e+000 4. 0. 2.
      4.00313735e-001 4.29097891e-001 3.27995420e-001 4.11254823e-001
      4.66588050e-001</_>
    <_>
      1.86548221e+000 1.04937804e+000 1.70454550e+000 2. 0. 2.
      4.25098062e-001 4.04422343e-001 3.16608310e-001 3.07481766e-001
      3.67254376e-001</_>
    <_>
      3.32300878e+000 2.16101861e+000 2.71428561e+000 4. 0.
      1.41176474e+000 1.15827453e+000 1.26229775e+000 9.74170446e-001
      1.17883217e+000 1.24686241e+000</_>
    <_>
      2.68112803e+000 1.71134138e+000 2.27777767e+000 2. 1.
      1.84615386e+000 9.05725479e-001 9.02099013e-001 7.88232684e-001
      9.36346054e-001 9.30817246e-001</_>
    <_>
      1.39473689e+000 5.71523368e-001 1.15625000e+000 2. 0.
      3.42857146e+000 2.27450997e-001 2.24643484e-001 1.94356889e-001
      2.30141684e-001 2.53485352e-001</_>
    <_>
      2.16063356e+000 1.21974242e+000 1.70253170e+000 4. 0.
      1.20000005e+000 9.06039238e-001 9.94391918e-001 8.82646799e-001
      9.78343725e-001 1.07525122e+000</_>
    <_>
      2.04627252e+000 1.26974595e+000 1.57446814e+000 2. 1.
      2.40000010e+000 4.96000022e-001 4.33904827e-001 4.04873013e-001
      4.32857454e-001 4.06084627e-001</_>
    <_>
      2.48235297e+000 1.72873139e+000 1.92553186e+000 2. 1.
      2.40000010e+000 5.68784356e-001 6.22656643e-001 4.26871270e-001
      5.67679286e-001 6.20538116e-001</_>
    <_>
      1.99086761e+000 1.13471925e+000 1.18817210e+000 2. 0.
      1.50000000e+000 7.86196113e-001 7.82246470e-001 6.86369419e-001
      7.86415875e-001 8.12229753e-001</_>
    <_>
      1.60846555e+000 8.72951746e-001 1.24218750e+000 2. 1.
      1.71428573e+000 5.37725449e-001 4.68514681e-001 4.68093783e-001
      4.61007953e-001 4.45761651e-001</_>
    <_>
      1.23809528e+000 4.61683810e-001 7.55555570e-001 2. 1.
      3.28571439e+000 1.98588237e-001 1.95161030e-001 1.71893045e-001
      1.92518249e-001 1.95985928e-001</_>
    <_>
      3.10593224e+000 2.02981138e+000 1.99137926e+000 2. 1.
      1.71428573e+000 7.86509871e-001 8.25829208e-001 6.42275870e-001
      7.99296916e-001 8.06423306e-001</_>
    <_>
      2.68750000e+000 1.85069478e+000 2.13461542e+000 2. 1.
      1.71428573e+000 6.39686346e-001 9.45681810e-001 4.67298448e-001
      8.31982613e-001 1.02674365e+000</_>
    <_>
      1.92857146e+000 1.00716352e+000 1.50000000e+000 2. 0.
      2.37500000e+000 2.62588233e-001 3.66607904e-001 2.14143693e-001
      3.43441427e-001 4.05883014e-001</_>
    <_>
      1.58364308e+000 7.55077064e-001 1.36206901e+000 2. 1.
      1.71428573e+000 4.14745122e-001 6.19772494e-001 3.00837070e-001
      5.26755035e-001 6.68380380e-001</_>
    <_>
      2.04278064e+000 1.13207436e+000 1.59701490e+000 2. 0.
      1.20000005e+000 7.93098092e-001 7.26165712e-001 7.86700130e-001
      7.64866889e-001 7.16363728e-001</_>
    <_>
      2.10539842e+000 1.23642099e+000 1.05932200e+000 2. 1.
      1.91666663e+000 3.82431388e-001 4.29738820e-001 3.05938959e-001
      3.71108830e-001 4.09612805e-001</_>
    <_>
      2.59999990e+000 1.86630034e+000 2.03999996e+000 4. 2.
      1.60000002e+000 5.33333302e-001 9.40554380e-001 3.73543888e-001
      7.70314515e-001 1.06267071e+000</_>
    <_>
      1.47766328e+000 7.56653905e-001 1.13207543e+000 2. 1.
      2.40000010e+000 4.01882350e-001 3.91924381e-001 3.37209880e-001
      3.99983883e-001 3.96266162e-001</_>
    <_>
      1.87206268e+000 1.01262403e+000 1.71276593e+000 2. 0.
      1.26315784e+000 7.31294155e-001 6.76814616e-001 8.18805218e-001
      7.94627547e-001 7.69064844e-001</_>
    <_>
      1.99009895e+000 1.15822542e+000 1.77692306e+000 4. 0.
      1.50000000e+000 7.27215648e-001 7.99871802e-001 6.15020514e-001
      7.21071303e-001 7.88782358e-001</_>
    <_>
      1.36619723e+000 6.62321329e-001 1.17073166e+000 2. 0.
      2.66666675e+000 3.07137251e-001 2.03813493e-001 2.64347881e-001
      2.19836846e-001 1.77175641e-001</_>
    <_>
      1.27338135e+000 4.45694923e-001 1.08139539e+000 2. 1.
      3.42857146e+000 2.47529417e-001 3.14693153e-001 1.82484806e-001
      2.70314515e-001 3.20238709e-001</_>
    <_>
      1.95121956e+000 1.00489581e+000 2.19565225e+000 2. 0.
      1.87500000e+000 3.19999993e-001 2.23361626e-001 2.63901711e-001
      2.24291548e-001 1.54252484e-001</_>
    <_>
      3.64693880e+000 2.48338175e+000 2.43518519e+000 2. 1.
      1.53333330e+000 8.56784344e-001 8.29674721e-001 6.72111273e-001
      7.85342455e-001 7.84568727e-001</_>
    <_>
      1.87922704e+000 1.06770933e+000 1.97500002e+000 2. 1.
      1.43750000e+000 8.60235333e-001 7.17833698e-001 7.80453742e-001
      7.67067432e-001 6.30638838e-001</_>
    <_>
      1.33846152e+000 6.85608625e-001 7.81818211e-001 4. 0. 3.
      2.71686286e-001 3.00592840e-001 2.39575565e-001 3.01631629e-001
      3.44512671e-001</_>
    <_>
      2.46022725e+000 1.45329094e+000 1.39999998e+000 4. 0.
      2.18181825e+000 4.25411761e-001 5.08251905e-001 3.03436518e-001
      4.14609313e-001 5.05398154e-001</_>
    <_>
      1.83214283e+000 9.80361998e-001 1.32051277e+000 2. 0.
      2.40000010e+000 3.32549036e-001 2.75276423e-001 2.78218031e-001
      2.76647687e-001 2.66025543e-001</_>
    <_>
      1.60580909e+000 8.08543265e-001 1.41463411e+000 2. 0.
      2.40000010e+000 3.10901970e-001 3.32318544e-001 2.26791739e-001
      2.57352948e-001 3.23041111e-001</_>
    <_>
      1.55657494e+000 7.91204274e-001 1.06756759e+000 2. 2.
      2.40000010e+000 5.22039175e-001 5.44464052e-001 4.19635504e-001
      5.30699849e-001 5.62393546e-001</_>
    <_>
      1.50000000e+000 7.65426576e-001 1.16326535e+000 2. 1.
      2.66666675e+000 3.53254914e-001 3.47700715e-001 2.80041516e-001
      3.27930450e-001 3.56710106e-001</_>
    <_>
      2.91666675e+000 1.90333533e+000 2.28181815e+000 2. 0.
      1.71428573e+000 7.67058849e-001 8.63643646e-001 5.84350944e-001
      7.61109948e-001 8.75454903e-001</_>
    <_>
      2.17674422e+000 1.48211622e+000 1.27966106e+000 2. 0.
      1.84615386e+000 4.77176458e-001 5.10174692e-001 3.83185118e-001
      4.94847596e-001 5.52212179e-001</_>
    <_>
      1.59285712e+000 7.73640990e-001 1.18571424e+000 2. 0. 4.
      2.75764704e-001 2.77840078e-001 2.42892772e-001 2.94627547e-001
      3.32960367e-001</_>
    <_>
      2.25075531e+000 1.39505744e+000 1.77966106e+000 4. 0.
      1.60000002e+000 8.17882419e-001 7.48597980e-001 7.55991817e-001
      8.22187662e-001 7.29347467e-001</_>
    <_>
      2.01718211e+000 1.13808501e+000 1.40196073e+000 2. 0.
      1.20000005e+000 5.72862744e-001 3.79746854e-001 5.61479747e-001
      4.23062503e-001 3.84613067e-001</_>
    <_>
      1.81321836e+000 1.11269999e+000 1.51086962e+000 2. 1.
      1.76923072e+000 5.06980419e-001 4.17240798e-001 4.58471984e-001
      4.78370547e-001 3.66972119e-001</_>
    <_>
      2.03215432e+000 1.32703578e+000 1.29999995e+000 2. 0.
      1.84615386e+000 3.75843138e-001 2.46434852e-001 3.44639629e-001
      2.76245177e-001 2.40783870e-001</_>
    <_>
      2.17224884e+000 1.36917365e+000 1.94545460e+000 4. 0.
      1.71428573e+000 7.10901976e-001 7.25204289e-001 5.73662221e-001
      6.84494436e-001 6.88763201e-001</_>
    <_>
      2.22391868e+000 1.39819515e+000 1.89772725e+000 2. 0.
      1.83333337e+000 3.37254912e-001 6.74571395e-001 2.00137734e-001
      4.07739401e-001 6.88642263e-001</_>
    <_>
      1.44078946e+000 6.35915756e-001 8.53448272e-001 4. 1.
      3.42857146e+000 2.91137248e-001 3.62121463e-001 2.30264127e-001
      3.37886453e-001 4.14794207e-001</_>
    <_>
      1.59292030e+000 8.48081291e-001 1.32051277e+000 2. 0.
      2.09090900e+000 3.53568643e-001 2.51882732e-001 3.08848798e-001
      2.70448685e-001 2.50763595e-001</_>
    <_>
      1.62457335e+000 8.95005226e-001 1.42682922e+000 2. 0. 2.
      3.39764714e-001 3.80708218e-001 2.63416737e-001 3.23797762e-001
      3.68101120e-001</_>
    <_>
      1.97191012e+000 1.29141402e+000 1.56382978e+000 2. 0.
      1.84615386e+000 4.93803948e-001 4.25572813e-001 4.02215362e-001
      4.32884276e-001 4.37414944e-001</_>
    <_>
      1.51282048e+000 7.23422348e-001 1.19298244e+000 4. 0.
      2.66666675e+000 4.33882356e-001 5.05688190e-001 3.47103268e-001
      4.65677321e-001 5.18744767e-001</_>
    <_>
      1.79487181e+000 1.08240366e+000 1.03389835e+000 2. 4.
      1.79999995e+000 3.94352943e-001 2.94504106e-001 3.22466761e-001
      2.75466919e-001 2.37195194e-001</_>
    <_>
      2.08940387e+000 1.19128466e+000 1.50000000e+000 2. 0.
      2.40000010e+000 3.87137264e-001 3.20781946e-001 3.27685058e-001
      3.36329997e-001 3.06670308e-001</_>
    <_>
      1.58666670e+000 7.31998801e-001 1.31081080e+000 2. 0.
      3.14285707e+000 2.65098035e-001 3.29434395e-001 1.94977656e-001
      2.78445721e-001 3.31811160e-001</_>
    <_>
      2.12648225e+000 1.17945623e+000 1.87254906e+000 2. 1.
      2.40000010e+000 6.35294080e-001 6.51177704e-001 5.06871998e-001
      6.35278046e-001 6.60799801e-001</_>
    <_>
      1.33905578e+000 5.24975359e-001 9.09090936e-001 4. 0.
      2.29999995e+000 3.23764712e-001 3.26550245e-001 2.86093950e-001
      3.31821620e-001 3.45258623e-001</_>
    <_>
      1.42253518e+000 6.35313809e-001 9.52830195e-001 2. 0.
      2.55555558e+000 2.89254904e-001 3.32638979e-001 2.22194210e-001
      3.08608830e-001 3.44875574e-001</_>
    <_>
      1.81481481e+000 1.00664067e+000 1.33098590e+000 2. 0.
      1.41176474e+000 5.35215735e-001 5.79394341e-001 4.40353453e-001
      4.29690838e-001 5.35639763e-001</_>
    <_>
      1.62820518e+000 7.86243498e-001 1.04761910e+000 2. 0. 3.
      2.96156883e-001 3.26229751e-001 2.63397336e-001 3.37859631e-001
      3.80520374e-001</_>
    <_>
      3.92291665e+000 2.41615558e+000 3.39130425e+000 2. 0.
      1.50000000e+000 1.03686273e+000 1.14020193e+000 8.43053758e-001
      1.01422286e+000 1.12289190e+000</_>
    <_>
      1.65666664e+000 9.19486582e-001 1.45454550e+000 2. 0.
      2.40000010e+000 3.46666664e-001 5.03444970e-001 2.43823916e-001
      4.21801209e-001 5.43845356e-001</_>
    <_>
      2.63028955e+000 1.75226748e+000 1.90517247e+000 2. 0.
      1.71428573e+000 7.89019585e-001 7.65262008e-001 6.68852270e-001
      7.79358089e-001 8.03338706e-001</_>
    <_>
      1.60744989e+000 8.45043898e-001 1.52439022e+000 4. 1.
      1.36363637e+000 3.82117659e-001 6.09517694e-001 3.10032129e-001
      5.64968884e-001 6.84226990e-001</_>
    <_>
      2.07875896e+000 1.22269797e+000 1.20588231e+000 2. 1.
      2.40000010e+000 3.96862745e-001 4.87421930e-001 3.24717045e-001
      4.71124947e-001 5.27313232e-001</_>
    <_>
      1.58839047e+000 8.34273934e-001 1.25396824e+000 2. 0.
      1.60000002e+000 5.26431441e-001 4.83255923e-001 4.60722238e-001
      4.72091019e-001 4.65277582e-001</_>
    <_>
      2.16621995e+000 1.47335076e+000 1.85106385e+000 4. 0.
      1.76923072e+000 6.03607893e-001 6.56625569e-001 5.12090325e-001
      6.09998941e-001 6.58118367e-001</_>
    <_>
      1.97327399e+000 1.02276897e+000 1.52142859e+000 2. 0.
      1.20000005e+000 7.25019574e-001 8.69732440e-001 6.42857850e-001
      8.23287904e-001 9.51845229e-001</_>
    <_>
      1.80487800e+000 9.60678399e-001 1.38461542e+000 4. 2.
      1.50000000e+000 7.24705935e-001 7.57570922e-001 6.33643389e-001
      7.47021258e-001 7.76605070e-001</_>
    <_>
      1.92436969e+000 1.15100491e+000 1.71296299e+000 2. 0.
      1.60000002e+000 6.48784280e-001 6.90274000e-001 5.75524509e-001
      7.09397793e-001 7.84508228e-001</_>
    <_>
      1.96249998e+000 1.17944634e+000 1.64814818e+000 2. 1.
      1.71428573e+000 6.20235324e-001 4.94472027e-001 5.28482318e-001
      5.04776716e-001 4.46467280e-001</_>
    <_>
      1.98284316e+000 1.16619027e+000 1.91666663e+000 4. 0.
      1.20000005e+000 7.36941218e-001 7.88976133e-001 6.41577482e-001
      7.06821620e-001 7.74105132e-001</_>
    <_>
      1.54098356e+000 8.13286602e-001 1.01136363e+000 4. 0.
      1.89999998e+000 2.38431364e-001 2.28168562e-001 1.81767046e-001
      1.82562262e-001 1.88546494e-001</_>
    <_>
      3.19047618e+000 2.01571274e+000 1.74242425e+000 4. 1.
      1.71428573e+000 7.82431364e-001 8.42493176e-001 6.58473909e-001
      8.23583066e-001 8.79608095e-001</_>
    <_>
      1.55307257e+000 7.17871666e-001 1.27272725e+000 2. 0. 3.
      2.34666675e-001 2.24643484e-001 1.82116225e-001 1.87177986e-001
      2.29533985e-001</_>
    <_>
      2.04137921e+000 1.23944294e+000 1.48749995e+000 2. 0.
      1.60000002e+000 2.24000007e-001 4.97035742e-001 1.38352469e-001
      3.36410463e-001 5.78119159e-001</_>
    <_>
      1.36862743e+000 6.11488104e-001 1.21551728e+000 4. 0.
      2.29999995e+000 4.62431401e-001 5.09213269e-001 3.87006670e-001
      5.05581796e-001 5.13402104e-001</_>
    <_>
      1.46630728e+000 7.49355257e-001 1.09821427e+000 2. 0.
      2.18181825e+000 3.63607854e-001 3.97692680e-001 2.82078415e-001
      3.62414122e-001 3.86387229e-001</_>
    <_>
      1.53779066e+000 7.84124315e-001 1.05172420e+000 2. 1.
      2.18181825e+000 4.36392158e-001 3.58275890e-001 3.94397646e-001
      3.95556033e-001 3.53464186e-001</_>
    <_>
      1.88693464e+000 1.13411248e+000 1.24683547e+000 4. 1.
      1.33333337e+000 6.08313680e-001 6.06633544e-001 5.19287288e-001
      5.47150075e-001 6.17554247e-001</_>
    <_>
      1.42176867e+000 6.89327478e-001 1.10256410e+000 2. 1. 3.
      3.05254906e-001 2.45473489e-001 2.81574041e-001 2.81156063e-001
      2.50844240e-001</_>
    <_>
      1.51388884e+000 6.87043905e-001 1. 2. 0. 4. 2.42823541e-001
      2.71110415e-001 2.08265856e-001 2.68167675e-001 3.31932127e-001</_>
    <_>
      3.12462902e+000 2.05182528e+000 3.24358964e+000 2. 0.
      1.60000002e+000 6.93333387e-001 1.07899380e+000 4.90247250e-001
      9.08007741e-001 1.16948414e+000</_>
    <_>
      1.33846152e+000 6.34323955e-001 9.29687500e-001 4. 1.
      2.40000010e+000 4.25098062e-001 3.72696698e-001 3.77171457e-001
      3.83319020e-001 3.82677585e-001</_>
    <_>
      2.05301213e+000 1.28460181e+000 1.25384617e+000 4. 0.
      2.09090900e+000 5.10117650e-001 5.30684173e-001 3.98219198e-001
      4.90661204e-001 4.99551415e-001</_>
    <_>
      1.65714288e+000 8.23217511e-001 1.29166663e+000 4. 2.
      1.53333330e+000 6.18353009e-001 6.43807113e-001 5.21110773e-001
      5.61936438e-001 6.36304080e-001</_>
    <_>
      2.50235844e+000 1.60776246e+000 1.62698412e+000 4. 1. 2.
      7.02745080e-001 7.26806641e-001 5.83982348e-001 7.22305715e-001
      7.49387622e-001</_>
    <_>
      2.23229456e+000 1.45465147e+000 1.49230766e+000 4. 1. 2.
      5.77568650e-001 5.93815088e-001 4.24814999e-001 4.73110795e-001
      5.92312574e-001</_>
    <_>
      2.05955338e+000 1.35925353e+000 1.76744187e+000 2. 0.
      2.18181825e+000 4.18196082e-001 4.90306079e-001 2.88596421e-001
      3.77764046e-001 4.89591837e-001</_>
    <_>
      1.68611109e+000 9.96564329e-001 1.44565213e+000 2. 0. 2.
      3.78039211e-001 3.66287470e-001 2.83591509e-001 2.81504929e-001
      3.54008526e-001</_>
    <_>
      2.24731183e+000 1.25686002e+000 1.55882359e+000 2. 0.
      1.33333337e+000 6.92392230e-001 7.24242926e-001 6.07474387e-001
      7.62344360e-001 7.41524816e-001</_>
    <_>
      2.11574078e+000 1.19626439e+000 1.66901410e+000 4. 1.
      1.33333337e+000 8.04392219e-001 8.66848290e-001 7.13139772e-001
      8.34773540e-001 8.96745026e-001</_>
    <_>
      1.75182486e+000 9.41973567e-001 9.63768125e-001 2. 0.
      2.66666675e+000 4.04705882e-001 4.64669108e-001 3.08402628e-001
      4.19842243e-001 5.02454638e-001</_>
    <_>
      1.61959660e+000 9.83709872e-001 1.20588231e+000 4. 0.
      1.60000002e+000 5.42431355e-001 6.01826668e-001 4.48054790e-001
      6.14695132e-001 6.07695520e-001</_>
    <_>
      1.53543305e+000 6.37357652e-001 1.18918920e+000 2. 0.
      3.42857146e+000 2.59764701e-001 2.56369174e-001 2.07063124e-001
      2.40580723e-001 2.66932786e-001</_>
    <_>
      1.67721522e+000 7.48576581e-001 9.24528301e-001 2. 2.
      3.28571439e+000 2.71372557e-001 3.02836061e-001 2.02155218e-001
      2.65591443e-001 3.05299342e-001</_>
    <_>
      1.64976954e+000 9.19282675e-001 1.32352936e+000 2. 0.
      2.87500000e+000 2.78901964e-001 2.43871167e-001 2.29197189e-001
      2.43156955e-001 2.36630678e-001</_>
    <_>
      1.97135413e+000 1.22547281e+000 1.73913038e+000 2. 1.
      2.40000010e+000 5.29568672e-001 6.37077391e-001 4.22972113e-001
      6.17727578e-001 6.85678601e-001</_>
    <_>
      1.67990077e+000 8.90684068e-001 1.27702701e+000 4. 0.
      1.50000000e+000 5.99529386e-001 7.00528800e-001 5.24175763e-001
      6.90183580e-001 7.59266555e-001</_>
    <_>
      2.30045867e+000 1.34917569e+000 2.20833325e+000 4. 1.
      1.33333337e+000 8.69960785e-001 1.01554239e+000 7.35545456e-001
      9.50971484e-001 1.03045332e+000</_>
    <_>
      2.00228834e+000 1.06858373e+000 1.45967746e+000 2. 0.
      1.20000005e+000 6.82980418e-001 5.93815088e-001 6.47707522e-001
      6.59456849e-001 5.81586897e-001</_>
    <_>
      1.45161295e+000 8.23265553e-001 1.28571427e+000 2. 0.
      2.40000010e+000 2.11764723e-001 3.72696698e-001 1.48963630e-001
      3.04717720e-001 4.54370439e-001</_>
    <_>
      1.76623380e+000 1.00513101e+000 1.07894742e+000 4. 0. 2.
      3.75529408e-001 5.02483606e-001 3.04076672e-001 4.68495071e-001
      5.64752400e-001</_>
    <_>
      2.11594200e+000 1.42987013e+000 2.12500000e+000 2. 0.
      1.33333337e+000 6.02039218e-001 5.08251905e-001 4.73350883e-001
      4.44960296e-001 4.93906319e-001</_>
    <_>
      2.00735283e+000 1.18505597e+000 1.62195122e+000 2. 0.
      2.44444442e+000 3.84941190e-001 4.14677143e-001 2.78858185e-001
      3.75348866e-001 4.06003982e-001</_>
    <_>
      2.00975609e+000 1.08870137e+000 1.50000000e+000 4. 0.
      1.09090912e+000 8.22901964e-001 9.31261003e-001 8.17486107e-001
      9.12489295e-001 1.00426412e+000</_>
    <_>
      2.57640743e+000 1.70873201e+000 2.26666665e+000 2. 0.
      1.84615386e+000 6.03294134e-001 6.77776039e-001 4.39868480e-001
      5.63922286e-001 6.92029297e-001</_>
    <_>
      1.39719629e+000 7.52684653e-001 1.11428571e+000 2. 0.
      2.29999995e+000 2.62274504e-001 1.83944881e-001 2.39420369e-001
      2.17045948e-001 1.95280284e-001</_>
    <_>
      1.57575762e+000 8.21728170e-001 9.11290348e-001 2. 0.
      2.40000010e+000 3.43215704e-001 4.17881727e-001 2.69566149e-001
      3.89410675e-001 4.34269816e-001</_>
    <_>
      1.85422742e+000 1.10486782e+000 1.43750000e+000 2. 0.
      1.71428573e+000 2.54431367e-001 4.94151592e-001 1.72707796e-001
      3.81628394e-001 5.96284330e-001</_>
    <_>
      3.06398106e+000 1.86084151e+000 2.13636374e+000 2. 0.
      1.53846157e+000 6.19607806e-001 2.64060259e-001 6.39637649e-001
      3.76019776e-001 1.89514220e-001</_>
    <_>
      3.11551166e+000 1.94389725e+000 2.84615374e+000 2. 0.
      1.60000002e+000 8.81568670e-001 9.45681810e-001 8.11297894e-001
      1.00061727e+000 1.05037248e+000</_>
    <_>
      2.34170866e+000 1.52823317e+000 2.32432437e+000 2. 0.
      2.40000010e+000 5.66274524e-001 6.76173687e-001 4.43709463e-001
      6.51084185e-001 7.10799277e-001</_>
    <_>
      1.73710072e+000 1.00718522e+000 1.10344827e+000 2. 1. 2.
      4.38274533e-001 3.79426360e-001 3.79499316e-001 3.88310432e-001
      3.68988216e-001</_>
    <_>
      1.46332049e+000 7.25704432e-001 9.51219499e-001 2. 1.
      2.37500000e+000 2.07058817e-001 2.81685650e-001 1.63144171e-001
      2.40366057e-001 2.87275344e-001</_>
    <_>
      2.04567313e+000 1.15414405e+000 1.94531250e+000 4. 1.
      1.71428573e+000 8.70588303e-001 8.17817688e-001 7.47805476e-001
      8.03939462e-001 7.54992425e-001</_>
    <_>
      1.69820976e+000 9.41225111e-001 1.16250002e+000 4. 2. 2.
      6.04549050e-001 6.49254918e-001 4.76260692e-001 6.16090596e-001
      6.77654445e-001</_>
    <_>
      1.85384619e+000 1.17742574e+000 1.48837209e+000 2. 0.
      1.84615386e+000 4.81254905e-001 3.29754829e-001 4.40819025e-001
      3.76851678e-001 3.34331304e-001</_>
    <_>
      1.77880180e+000 1.03260779e+000 1.48717952e+000 2. 0.
      2.66666675e+000 3.83372545e-001 3.29434395e-001 3.18994373e-001
      3.27018023e-001 3.42536867e-001</_>
    <_>
      2.68137264e+000 1.74514627e+000 1.98936164e+000 4. 1.
      2.18181825e+000 6.03921533e-001 6.91235363e-001 4.70014274e-001
      6.45636559e-001 6.95376039e-001</_>
    <_>
      1.80246913e+000 8.66663158e-001 1.07777774e+000 2. 0.
      3.42857146e+000 3.04000020e-001 3.90001595e-001 2.49992728e-001
      3.65419745e-001 4.38483477e-001</_>
    <_>
      1.49655175e+000 6.33807719e-001 7.81818211e-001 4. 2. 4.
      2.64156878e-001 2.82326579e-001 2.20719904e-001 2.75762141e-001
      3.17194372e-001</_>
    <_>
      2.06940055e+000 1.19472182e+000 1.72448981e+000 2. 0. 2.
      4.35137272e-001 7.10463107e-001 2.97248274e-001 5.76561809e-001
      7.60214150e-001</_>
    <_>
      2.00735283e+000 1.10588658e+000 1.84090912e+000 4. 0.
      1.50000000e+000 8.27921629e-001 9.04662728e-001 7.37058520e-001
      8.54175627e-001 9.27712440e-001</_>
    <_>
      1.56050956e+000 8.04743707e-001 1.04794526e+000 4. 1.
      1.71428573e+000 4.98509794e-001 4.46402848e-001 4.11080629e-001
      3.78676474e-001 4.45217282e-001</_>
    <_>
      1.72611463e+000 8.10845792e-001 1.37500000e+000 2. 1.
      3.42857146e+000 3.55764717e-001 4.11472499e-001 2.90516883e-001
      4.07229483e-001 4.51245457e-001</_>
    <_>
      1.82555282e+000 1.07759655e+000 1.57894742e+000 4. 1.
      2.18181825e+000 6.13019586e-001 6.32590950e-001 5.08016527e-001
      6.21377230e-001 6.46283805e-001</_>
    <_>
      1.77027023e+000 9.37900126e-001 1.24285710e+000 2. 0. 3.
      2.52549022e-001 3.65966976e-001 2.01301664e-001 3.52726519e-001
      4.43342298e-001</_>
    <_>
      1.51879704e+000 7.61888266e-001 1.19736838e+000 2. 0. 3.
      2.46901959e-001 2.26886705e-001 1.88343257e-001 1.82213396e-001
      2.26046115e-001</_>
    <_>
      1.72560978e+000 8.43383253e-001 1.14864862e+000 2. 1.
      2.37500000e+000 2.53803939e-001 2.38423333e-001 2.08595634e-001
      2.30383232e-001 2.11933345e-001</_>
    <_>
      1.68715084e+000 9.90120053e-001 1.05970144e+000 2. 4.
      1.72727275e+000 4.37333345e-001 3.29434395e-001 3.44018877e-001
      2.97123253e-001 2.66086042e-001</_>
    <_>
      1.97164953e+000 1.25661969e+000 1.78846157e+000 4. 1.
      2.29999995e+000 6.30588293e-001 6.63034797e-001 5.02895236e-001
      6.34821832e-001 6.64247334e-001</_>
    <_>
      1.56108594e+000 8.83292198e-001 1.36111116e+000 2. 0.
      2.40000010e+000 3.39137256e-001 2.43550703e-001 3.00390899e-001
      2.61888146e-001 2.53828079e-001</_>
    <_>
      1.63605440e+000 9.22245502e-001 1.42499995e+000 2. 0.
      1.71428573e+000 2.78901964e-001 4.82294500e-001 1.98197857e-001
      3.90752494e-001 5.93441606e-001</_>
    <_>
      2.34988189e+000 1.56363630e+000 2.04807687e+000 4. 0.
      2.18181825e+000 7.34745145e-001 7.29690790e-001 5.98803103e-001
      7.11732507e-001 7.12230742e-001</_>
    <_>
      1.59546924e+000 7.64151633e-001 1.71323526e+000 4. 0.
      1.33333337e+000 7.63921618e-001 6.91235363e-001 7.34459102e-001
      6.32648110e-001 6.46949112e-001</_>
    <_>
      1.80263162e+000 1.10999930e+000 1.41964281e+000 4. 0.
      2.18181825e+000 5.01960754e-001 5.75228333e-001 3.95348161e-001
      5.43124735e-001 5.87191641e-001</_>
    <_>
      1.84225357e+000 1.19053328e+000 1.66666663e+000 2. 0. 2.
      5.93568683e-001 5.79073906e-001 4.99015540e-001 6.00686967e-001
      6.35578275e-001</_>
    <_>
      1.71839082e+000 8.34600687e-001 1.15740740e+000 2. 2. 3.
      4.06274527e-001 4.00897264e-001 3.30109894e-001 3.90457273e-001
      4.11266029e-001</_>
    <_>
      1.85227275e+000 8.33118081e-001 1.04629624e+000 2. 2. 3.
      3.47607851e-001 3.82310510e-001 2.74338275e-001 3.62172604e-001
      4.05338675e-001</_>
    <_>
      1.90566039e+000 1.02664173e+000 1.28048778e+000 2. 1.
      2.87500000e+000 3.57019603e-001 2.25284413e-001 3.07781845e-001
      2.48926595e-001 1.89010188e-001</_>
    <_>
      1.68725872e+000 1.01659584e+000 1.65714288e+000 2. 0.
      2.18181825e+000 2.98666686e-001 4.67553318e-001 2.09041804e-001
      3.95958602e-001 5.48845291e-001</_>
    <_>
      2.00574708e+000 9.73777592e-001 1.03333330e+000 4. 1. 3.
      4.20392156e-001 4.12754357e-001 3.51041257e-001 4.18554127e-001
      4.15600657e-001</_>
    <_>
      1.57692313e+000 7.68268645e-001 1.26595747e+000 4. 0.
      3.42857146e+000 3.51372570e-001 4.51530218e-001 2.65298426e-001
      4.12328243e-001 4.65660632e-001</_>
    <_>
      1.85749996e+000 1.14769065e+000 1.68750000e+000 4. 1. 2.
      5.76313734e-001 6.22015715e-001 4.90615845e-001 6.34821832e-001
      6.39166951e-001</_>
    <_>
      1.93081760e+000 9.25661385e-001 1.07954550e+000 2. 0. 4.
      2.96784312e-001 3.08283925e-001 2.42252588e-001 3.01363230e-001
      3.26448321e-001</_>
    <_>
      2.27702713e+000 1.37785387e+000 2.05999994e+000 2. 1.
      1.71428573e+000 6.92392230e-001 6.47011697e-001 5.59792042e-001
      6.15956426e-001 5.91627121e-001</_>
    <_>
      2.94692135e+000 1.89516819e+000 2.05932212e+000 2. 0.
      1.50000000e+000 8.88784289e-001 8.85755479e-001 7.74925053e-001
      8.99554551e-001 9.37208295e-001</_>
    <_>
      1.77804291e+000 9.55274284e-001 1.35135138e+000 4. 0.
      1.33333337e+000 7.53254890e-001 7.66864300e-001 7.39153624e-001
      7.61029422e-001 7.67915666e-001</_>
    <_>
      1.85714281e+000 1.14771700e+000 1.28947365e+000 2. 1.
      2.55555558e+000 4.56470579e-001 4.91908371e-001 3.48383605e-001
      4.45684850e-001 4.93241012e-001</_>
    <_>
      2.62468505e+000 1.70868146e+000 2.56250000e+000 2. 1. 2.
      6.72313690e-001 8.15253973e-001 5.20024419e-001 7.73883641e-001
      8.67733181e-001</_>
    <_>
      2.15463924e+000 1.25665414e+000 1.72656250e+000 2. 0.
      1.20000005e+000 6.39372587e-001 9.01458085e-001 5.11547148e-001
      8.09387088e-001 9.87792492e-001</_>
    <_>
      1.71641791e+000 9.27296996e-001 1.32894742e+000 4. 1.
      1.26315784e+000 6.07058883e-001 8.09485674e-001 5.35077929e-001
      7.05962837e-001 8.71241212e-001</_>
    <_>
      2.20643425e+000 1.44153678e+000 2.18181825e+000 2. 1.
      2.18181825e+000 5.42745113e-001 7.36740947e-001 3.75871748e-001
      6.14829302e-001 7.75939763e-001</_>
    <_>
      1.81818187e+000 1.05654764e+000 1.28846157e+000 2. 0.
      1.50000000e+000 4.81882364e-001 3.79746854e-001 4.54863787e-001
      3.68881524e-001 3.93685549e-001</_>
    <_>
      1.49374998e+000 7.58261800e-001 7.83333361e-001 4. 1. 3.
      2.98039228e-001 3.27832103e-001 2.55676597e-001 3.29808950e-001
      3.97637129e-001</_>
    <_>
      2.12714767e+000 1.34993386e+000 1.95454550e+000 2. 0.
      2.18181825e+000 4.71215695e-001 5.08251905e-001 3.21516216e-001
      3.86914968e-001 5.00680447e-001</_>
    <_>
      1.61379313e+000 7.44508207e-001 8.62500012e-001 2. 1. 4.
      2.12078422e-001 1.83303952e-001 1.86189979e-001 1.87714696e-001
      1.88707784e-001</_>
    <_>
      1.52972972e+000 7.67891049e-001 1.16417909e+000 2. 0.
      1.60000002e+000 5.33019662e-001 4.80371773e-001 4.79442120e-001
      5.02978742e-001 4.68563825e-001</_>
    <_>
      2.15590191e+000 1.19677258e+000 1.78378379e+000 4. 2.
      1.50000000e+000 8.94431353e-001 9.20044899e-001 7.81055093e-001
      8.67969096e-001 9.47228372e-001</_>
    <_>
      1.55091381e+000 7.86234677e-001 1.04225349e+000 4. 2. 2.
      4.91607875e-001 5.26838660e-001 4.17676240e-001 5.11807621e-001
      5.59833050e-001</_>
    <_>
      2.64190984e+000 1.78161693e+000 2.27083325e+000 2. 1.
      1.84615386e+000 8.12548995e-001 8.55952561e-001 6.96999967e-001
      8.73872936e-001 9.20656025e-001</_>
    <_>
      2.28187919e+000 1.39308226e+000 2.14583325e+000 2. 1.
      2.18181825e+000 6.22745156e-001 6.63034797e-001 4.57172245e-001
      5.67518234e-001 6.70779526e-001</_>
    <_>
      1.50689650e+000 7.48530090e-001 1.39024389e+000 2. 0.
      2.40000010e+000 3.05568635e-001 3.20781946e-001 2.23901302e-001
      2.49543801e-001 3.08968663e-001</_>
    <_>
      2.06211185e+000 9.94952738e-001 2.04687500e+000 2. 0.
      3.28571439e+000 4.25411761e-001 4.65310037e-001 3.35366994e-001
      4.54460084e-001 4.76930678e-001</_>
    <_>
      2.08284020e+000 1.01713204e+000 1.55555558e+000 2. 1.
      2.37500000e+000 3.49176466e-001 2.75276423e-001 2.77345091e-001
      2.67469943e-001 2.18888924e-001</_>
    <_>
      2.38736272e+000 1.85192347e+000 1.98863637e+000 2. 0.
      1.71428573e+000 5.25803924e-001 3.65005612e-001 4.04271632e-001
      2.88831055e-001 2.89412409e-001</_>
    <_>
      1.67647064e+000 8.98383796e-001 1.34848487e+000 2. 0. 3.
      2.81725496e-001 2.35859647e-001 2.35540614e-001 2.40983263e-001
      2.56328076e-001</_>
    <_>
      1.84158421e+000 1.03629839e+000 1.38888884e+000 2. 0.
      2.66666675e+000 3.73647064e-001 3.25588822e-001 2.85414994e-001
      3.07481766e-001 2.98505068e-001</_>
    <_>
      2.71657753e+000 2.02653337e+000 1.95454550e+000 2. 0.
      1.43750000e+000 6.67607903e-001 5.20108998e-001 5.48637688e-001
      3.94616783e-001 4.19532061e-001</_>
    <_>
      2.00624990e+000 8.97892475e-001 1.45945942e+000 2. 1. 4.
      3.61098051e-001 3.89360666e-001 3.00895274e-001 3.91986907e-001
      4.25983608e-001</_>
    <_>
      1.67251468e+000 7.55722106e-001 1.31481481e+000 4. 2. 3.
      4.57098037e-001 4.69796538e-001 3.61923993e-001 4.49307680e-001
      4.89511192e-001</_>
    <_>
      1.40740740e+000 5.99954247e-001 1.22413790e+000 2. 0.
      3.66666675e+000 2.06745088e-001 1.93558723e-001 1.73483744e-001
      1.77812368e-001 1.89352930e-001</_>
    <_>
      1.54104483e+000 7.49498606e-001 1.15151513e+000 2. 0.
      2.66666675e+000 6.80784360e-002 1.94840565e-001 3.27258259e-002
      4.12999168e-002 1.87457785e-001</_>
    <_>
      2.24914670e+000 1.29162741e+000 1.75641024e+000 2. 0.
      2.40000010e+000 4.59607869e-001 3.75901282e-001 3.75386775e-001
      3.83963108e-001 3.54613364e-001</_>
    <_>
      1.43324256e+000 7.15942323e-001 1.10655737e+000 2. 0.
      1.84615386e+000 3.89333338e-001 4.75564837e-001 3.03766280e-001
      4.25987542e-001 5.09027123e-001</_>
    <_>
      2.73809528e+000 1.77629256e+000 2.00961542e+000 2. 1.
      1.60000002e+000 6.23058796e-001 8.21342766e-001 4.66037512e-001
      7.24881947e-001 8.63156617e-001</_>
    <_>
      2.07547164e+000 1.37667990e+000 1.18644071e+000 4. 0.
      1.84615386e+000 4.97882336e-001 4.96394813e-001 4.42351550e-001
      5.06816208e-001 5.62070966e-001</_>
    <_>
      1.78810406e+000 1.11248732e+000 1.51190472e+000 2. 0.
      1.84615386e+000 3.33490193e-001 3.33920836e-001 2.36258358e-001
      2.58989930e-001 3.43948156e-001</_>
    <_>
      1.85421991e+000 1.09251177e+000 1.63559318e+000 2. 0.
      1.33333337e+000 6.83607817e-001 6.20413423e-001 6.37426138e-001
      6.26207590e-001 5.90236008e-001</_>
    <_>
      2.05714297e+000 1.14914930e+000 1.71917808e+000 4. 1.
      1.33333337e+000 7.85254955e-001 8.92485201e-001 7.00006783e-001
      8.31526399e-001 8.92793417e-001</_>
    <_>
      3.03196359e+000 1.94299614e+000 2.18750000e+000 4. 1.
      1.71428573e+000 8.58980417e-001 8.53068411e-001 7.23964334e-001
      8.42502177e-001 8.13701510e-001</_>
    <_>
      1.47019863e+000 7.44142234e-001 9.29687500e-001 4. 0.
      2.29999995e+000 3.35686296e-001 4.04101908e-001 2.49934554e-001
      3.59998941e-001 3.97233903e-001</_>
    <_>
      1.82142854e+000 8.54410350e-001 1.30232561e+000 4. 1. 3.
      3.76470596e-001 4.01538193e-001 3.16976905e-001 4.01245177e-001
      4.19894964e-001</_>
    <_>
      1.33739841e+000 6.01474941e-001 8.95348847e-001 4. 0.
      2.11111116e+000 1.91372558e-001 2.32334569e-001 1.48129478e-001
      2.02501073e-001 2.30461389e-001</_>
    <_>
      2.16183567e+000 1.38675320e+000 1.73684216e+000 2. 0.
      1.71428573e+000 6.80784345e-001 6.60471082e-001 5.64040363e-001
      6.81998730e-001 6.89448714e-001</_>
    <_>
      2.50359702e+000 1.64779091e+000 1.49019611e+000 4. 1.
      1.84615386e+000 5.07607818e-001 5.49911857e-001 4.19790715e-001
      5.55388570e-001 5.50679922e-001</_>
    <_>
      1.90656567e+000 1.28466380e+000 1.57894742e+000 4. 1.
      2.40000010e+000 5.90431333e-001 6.64316654e-001 4.62196559e-001
      6.29159510e-001 6.91908360e-001</_>
    <_>
      1.61635220e+000 7.67244041e-001 1.10256410e+000 2. 0. 3.
      2.64156878e-001 2.14388713e-001 2.24366874e-001 2.28692576e-001
      2.14453489e-001</_>
    <_>
      1.66961646e+000 9.67002869e-001 1.58181822e+000 4. 1. 2.
      6.09568596e-001 5.46066344e-001 5.29064298e-001 5.74280798e-001
      5.17938316e-001</_>
    <_>
      1.72241998e+000 9.32506561e-001 1.14179099e+000 2. 2.
      2.66666675e+000 4.84705895e-001 5.00560820e-001 3.73718470e-001
      4.64013517e-001 5.09228766e-001</_>
    <_>
      2.25000000e+000 1.22070944e+000 1.58045971e+000 2. 1.
      1.33333337e+000 8.15999985e-001 9.42477167e-001 6.37930512e-001
      7.29739189e-001 9.41583276e-001</_>
    <_>
      2.23749995e+000 1.42691755e+000 1.43518519e+000 4. 1.
      1.71428573e+000 4.80941206e-001 6.06313109e-001 3.74804825e-001
      5.59118748e-001 6.36243582e-001</_>
    <_>
      1.65416670e+000 8.47289383e-001 1.28205132e+000 2. 1. 2.
      2.92392164e-001 1.97724730e-001 2.31699646e-001 1.80549592e-001
      1.48647696e-001</_>
    <_>
      2.41409683e+000 1.44056237e+000 1.88983047e+000 2. 0.
      1.71428573e+000 7.47607827e-001 7.72632599e-001 6.12712026e-001
      7.72890747e-001 8.08681369e-001</_>
    <_>
      2.47368431e+000 1.34118652e+000 1.97887325e+000 2. 1.
      1.09090912e+000 8.09411764e-001 8.97292137e-001 6.89124048e-001
      6.04363441e-001 8.61160696e-001</_>
    <_>
      2.89709163e+000 2.08503032e+000 1.72131145e+000 2. 4.
      1.50000000e+000 6.55372620e-001 6.93799078e-001 5.14709175e-001
      6.32996976e-001 6.07151151e-001</_>
    <_>
      1.54941857e+000 8.40749741e-001 1.31372547e+000 2. 0.
      2.40000010e+000 4.21333343e-001 4.51530218e-001 3.34920824e-001
      4.40156758e-001 4.82636273e-001</_>
    <_>
      1.95238090e+000 1.15847087e+000 1.64705884e+000 2. 0. 2.
      4.58039254e-001 5.00560820e-001 3.16123337e-001 3.78354430e-001
      4.98825610e-001</_>
    <_>
      2.21367526e+000 1.11576939e+000 1.94767439e+000 4. 2.
      1.09090912e+000 1.10776472e+000 1.17224801e+000 1.05667377e+000
      1.07487118e+000 1.17889941e+000</_>
    <_>
      2.03269744e+000 1.16442227e+000 1.86206901e+000 2. 0.
      1.41176474e+000 5.97647071e-001 7.64621079e-001 4.52128559e-001
      5.92797339e-001 7.90596902e-001</_>
    <_>
      1.72727275e+000 9.47989345e-001 1.07017541e+000 2. 1.
      1.79999995e+000 4.08156872e-001 3.20461452e-001 3.41594011e-001
      3.24066162e-001 2.68989235e-001</_>
    <_>
      1.32592595e+000 5.55506170e-001 1.13513517e+000 2. 0. 3.
      2.90823549e-001 2.07659036e-001 2.66908526e-001 2.46511385e-001
      1.99877024e-001</_>
    <_>
      3.00218344e+000 1.92262888e+000 1.83620691e+000 2. 2.
      2.18181825e+000 6.78902030e-001 7.60134578e-001 5.26251435e-001
      6.99414968e-001 7.92290390e-001</_>
    <_>
      1.88571429e+000 8.47565532e-001 9.88888860e-001 2. 1. 3.
      2.78901964e-001 2.95465469e-001 2.34124497e-001 3.01363230e-001
      3.06327552e-001</_>
    <_>
      1.52313173e+000 8.22503030e-001 1.05932200e+000 2. 3.
      1.79999995e+000 3.89647067e-001 3.14052224e-001 3.08829397e-001
      2.99618959e-001 2.60763496e-001</_>
    <_>
      2.19819808e+000 1.44459116e+000 1.65217388e+000 2. 1.
      2.40000010e+000 5.57490230e-001 5.80676198e-001 4.86774862e-001
      6.05114877e-001 6.11647069e-001</_>
    <_>
      2.55106878e+000 1.55359674e+000 2.07142854e+000 2. 0.
      1.71428573e+000 6.75764680e-001 6.71046317e-001 5.47085822e-001
      6.40323102e-001 6.38985515e-001</_>
    <_>
      1.54166663e+000 8.48814547e-001 8.30508471e-001 4. 1.
      2.66666675e+000 2.73254901e-001 3.26870680e-001 2.18411446e-001
      2.85959661e-001 3.85681599e-001</_>
    <_>
      1.51315784e+000 7.34370828e-001 1.27272725e+000 2. 0. 3.
      3.28470588e-001 3.70132983e-001 2.52165407e-001 3.31687450e-001
      4.12677288e-001</_>
    <_>
      1.38848925e+000 5.93863010e-001 1.13461542e+000 4. 0.
      3.42857146e+000 3.59529406e-001 3.65005612e-001 2.80584693e-001
      3.38315785e-001 3.64613265e-001</_>
    <_>
      2.00476193e+000 1.30747890e+000 1.56603777e+000 2. 0. 2.
      5.62196136e-001 5.86444497e-001 4.61653382e-001 5.76857030e-001
      6.31566226e-001</_>
    <_>
      1.57017541e+000 8.47796917e-001 1.36956525e+000 2. 0.
      1.76923072e+000 4.96627480e-001 3.18538666e-001 4.70751435e-001
      3.98185909e-001 2.86448717e-001</_>
    <_>
      1.49459457e+000 7.39775717e-001 1.32142854e+000 4. 0.
      1.60000002e+000 6.39372587e-001 6.80339694e-001 5.46659052e-001
      6.84735954e-001 6.93642199e-001</_>
    <_>
      2.43750000e+000 1.46708679e+000 2.02777767e+000 2. 2. 2.
      7.14666724e-001 7.74875820e-001 5.58453500e-001 7.23567009e-001
      7.78621197e-001</_>
    <_>
      1.80965912e+000 1.15089786e+000 1.57954550e+000 2. 1.
      2.40000010e+000 5.19843102e-001 4.03460979e-001 4.62060750e-001
      4.55614030e-001 4.07717675e-001</_>
    <_>
      2.16063356e+000 1.21974242e+000 1.70253170e+000 4. 0.
      1.20000005e+000 9.06039238e-001 9.94391918e-001 8.82646799e-001
      9.78343725e-001 1.07525122e+000</_>
    <_>
      1.51832461e+000 7.36788929e-001 1.33333337e+000 2. 0. 3.
      2.16156870e-001 2.76558220e-001 1.38177872e-001 1.91203311e-001
      2.85380185e-001</_>
    <_>
      1.87179482e+000 9.38615680e-001 1.12195122e+000 4. 0. 4.
      2.93333352e-001 3.53148520e-001 2.43901491e-001 3.54846537e-001
      3.86205792e-001</_>
    <_>
      1.75466669e+000 1.05505681e+000 1.41176474e+000 2. 0.
      2.40000010e+000 4.24784333e-001 4.92228806e-001 3.17791641e-001
      4.30093408e-001 5.33704281e-001</_>
    <_>
      1.51724136e+000 8.39568436e-001 1.15476191e+000 2. 0.
      2.18181825e+000 2.98980385e-001 2.47075781e-001 2.50574708e-001
      2.29631826e-001 2.38888726e-001</_>
    <_>
      1.83333337e+000 1.08736706e+000 1.24166667e+000 4. 2.
      2.40000010e+000 4.83450979e-001 5.20429432e-001 3.88771981e-001
      4.98255670e-001 5.31325281e-001</_>
    <_>
      1.50375938e+000 7.11073101e-001 1.09756100e+000 4. 1.
      1.41176474e+000 6.10823512e-001 6.26822650e-001 5.38918912e-001
      6.19364560e-001 6.33259773e-001</_>
    <_>
      1.91383815e+000 1.18757343e+000 1.47058821e+000 2. 1.
      2.09090900e+000 5.41490197e-001 4.56657588e-001 4.64020044e-001
      4.82825220e-001 4.14330512e-001</_>
    <_>
      1.35031843e+000 5.51387846e-001 8.38709652e-001 4. 0. 3.
      3.22196096e-001 3.94167602e-001 2.65860975e-001 3.82701814e-001
      4.57414746e-001</_>
    <_>
      1.91530943e+000 1.03016090e+000 1.74074078e+000 2. 1.
      1.76923072e+000 4.97568637e-001 5.56641579e-001 3.38858783e-001
      4.04438615e-001 5.28764844e-001</_>
    <_>
      4.13199997e+000 2.94865656e+000 2.65753436e+000 2. 2.
      1.09090912e+000 1.21725488e+000 1.11136031e+000 1.07803190e+000
      8.93436015e-001 9.53579128e-001</_>
    <_>
      2.11590910e+000 1.26409209e+000 1.58870971e+000 4. 0.
      1.69230771e+000 6.44392133e-001 7.38022745e-001 5.19035101e-001
      7.02125371e-001 7.32190192e-001</_>
    <_>
      2.63451767e+000 1.67041326e+000 1.85937500e+000 2. 1.
      1.57142854e+000 7.23451018e-001 7.58852780e-001 5.47396183e-001
      6.63186967e-001 7.25153983e-001</_>
    <_>
      1.66384184e+000 8.55354011e-001 1.18750000e+000 2. 1.
      1.60000002e+000 4.91294116e-001 6.03108466e-001 4.20605451e-001
      5.60218990e-001 6.51324093e-001</_>
    <_>
      1.49333334e+000 8.42588603e-001 1.04081631e+000 2. 0.
      2.40000010e+000 3.77725512e-001 3.43534708e-001 3.51429224e-001
      3.85224342e-001 3.88746083e-001</_>
    <_>
      2.15730333e+000 1.02111280e+000 1.32142854e+000 2. 1. 3.
      3.46980393e-001 4.20125008e-001 2.75424600e-001 4.01728213e-001
      4.59854245e-001</_>
    <_>
      2.21911430e+000 1.32696903e+000 1.26153851e+000 2. 2.
      1.71428573e+000 5.32078385e-001 5.87726355e-001 4.31352407e-001
      5.65720260e-001 5.95276237e-001</_>
    <_>
      1.52631581e+000 7.77541399e-001 9.77777779e-001 2. 1. 3.
      2.46901959e-001 1.99967951e-001 1.96025193e-001 1.68527275e-001
      1.78586915e-001</_>
    <_>
      1.98525798e+000 1.24603701e+000 1.56250000e+000 2. 0.
      1.60000002e+000 6.93960786e-001 6.92517221e-001 5.97289979e-001
      7.00568914e-001 7.63238311e-001</_>
    <_>
      1.75380707e+000 1.00395072e+000 1.56250000e+000 2. 0.
      1.41176474e+000 4.57411796e-001 3.43855143e-001 3.93059105e-001
      2.51395464e-001 3.24613661e-001</_>
    <_>
      1.49333334e+000 7.44281888e-001 1.10769236e+000 4. 0.
      1.71428573e+000 4.92235333e-001 4.19484079e-001 4.39402908e-001
      4.29315150e-001 3.98927420e-001</_>
    <_>
      1.78117049e+000 1.04013681e+000 1.38541663e+000 4. 0.
      2.18181825e+000 3.82431388e-001 4.26854670e-001 2.86928117e-001
      3.61582220e-001 4.11810368e-001</_>
    <_>
      1.76349616e+000 1.02693999e+000 1.92727268e+000 4. 0.
      1.71428573e+000 7.07764745e-001 7.08219826e-001 5.88094950e-001
      6.76846266e-001 6.92855954e-001</_>
    <_>
      2.01655626e+000 1.19728887e+000 1.83749998e+000 2. 0.
      2.40000010e+000 4.49254900e-001 4.57618952e-001 3.35677385e-001
      4.20056880e-001 4.76930678e-001</_>
    <_>
      1.75000000e+000 7.99199283e-001 1.10714281e+000 2. 0.
      3.42857146e+000 3.09333354e-001 3.07322562e-001 2.66074359e-001
      3.23261082e-001 3.44815075e-001</_>
    <_>
      1.57004833e+000 7.88609445e-001 1.29487181e+000 2. 0.
      2.66666675e+000 2.49098033e-001 2.82326579e-001 1.74007520e-001
      2.07411990e-001 2.79493153e-001</_>
    <_>
      1.39923954e+000 6.38081253e-001 1.25000000e+000 2. 1.
      2.66666675e+000 4.08470601e-001 3.52187157e-001 3.76492500e-001
      3.94187450e-001 3.34976465e-001</_>
    <_>
      1.67123282e+000 8.60945582e-001 1.07500005e+000 2. 0.
      3.28571439e+000 2.45019615e-001 2.00929344e-001 1.93425745e-001
      1.85057968e-001 1.77881271e-001</_>
    <_>
      2.85354686e+000 1.82696998e+000 2.01408458e+000 2. 2.
      1.60000002e+000 9.94509816e-001 1.09726012e+000 8.28097284e-001
      1.06172180e+000 1.13551271e+000</_>
    <_>
      2.51612902e+000 1.49704301e+000 1.95901644e+000 2. 1.
      1.84615386e+000 7.95607805e-001 8.58195841e-001 6.39734626e-001
      8.15237224e-001 8.73096049e-001</_>
    <_>
      1.69520545e+000 9.71993566e-001 1.27777779e+000 2. 0.
      2.55555558e+000 3.31607848e-001 3.36804986e-001 2.49410778e-001
